{"learner":{"attributes":{"niter":"99"},"feature_names":[],"feature_types":[],"gradient_booster":{"model":{"gbtree_model_param":{"num_parallel_tree":"1","num_trees":"400","size_leaf_vector":"0"},"tree_info":[0,1,2,3,0,1,2,3,0,1,2,3,0,1,2,3,0,1,2,3,0,1,2,3,0,1,2,3,0,1,2,3,0,1,2,3,0,1,2,3,0,1,2,3,0,1,2,3,0,1,2,3,0,1,2,3,0,1,2,3,0,1,2,3,0,1,2,3,0,1,2,3,0,1,2,3,0,1,2,3,0,1,2,3,0,1,2,3,0,1,2,3,0,1,2,3,0,1,2,3,0,1,2,3,0,1,2,3,0,1,2,3,0,1,2,3,0,1,2,3,0,1,2,3,0,1,2,3,0,1,2,3,0,1,2,3,0,1,2,3,0,1,2,3,0,1,2,3,0,1,2,3,0,1,2,3,0,1,2,3,0,1,2,3,0,1,2,3,0,1,2,3,0,1,2,3,0,1,2,3,0,1,2,3,0,1,2,3,0,1,2,3,0,1,2,3,0,1,2,3,0,1,2,3,0,1,2,3,0,1,2,3,0,1,2,3,0,1,2,3,0,1,2,3,0,1,2,3,0,1,2,3,0,1,2,3,0,1,2,3,0,1,2,3,0,1,2,3,0,1,2,3,0,1,2,3,0,1,2,3,0,1,2,3,0,1,2,3,0,1,2,3,0,1,2,3,0,1,2,3,0,1,2,3,0,1,2,3,0,1,2,3,0,1,2,3,0,1,2,3,0,1,2,3,0,1,2,3,0,1,2,3,0,1,2,3,0,1,2,3,0,1,2,3,0,1,2,3,0,1,2,3,0,1,2,3,0,1,2,3,0,1,2,3,0,1,2,3,0,1,2,3,0,1,2,3,0,1,2,3,0,1,2,3,0,1,2,3,0,1,2,3,0,1,2,3,0,1,2,3,0,1,2,3,0,1,2,3,0,1,2,3,0,1,2,3,0,1,2,3],"trees":[{"base_weights":[-1.406501E-1,-2.4821076E-1,1.14604145E-1,-2.9943055E-1,8.765473E-2,1.7715672E-1,-5.186916E-1,-1.9217867E-1,-4.3336397E-1,2.0408164E-1,-4.686596E-1,1.066684E-1,7.503958E-1,-6.0748255E-1,4.8951048E-1,-6.2006634E-2,-2.7939823E-1,-3.8502976E-1,-6.3845223E-1,1.0248087E-1,8.819876E-1,-5.674814E-1,4.6153846E-1,-4.6925385E-2,3.208191E-1,1.2372698E0,2.857143E-1,-6.323245E-1,7.5E-1,1.2432432E0,-2.857143E-1,-1.0867166E-1,5.771812E-1,-3.602379E-1,-6.850829E-2,-2.979962E-1,-5.344395E-1,-6.456311E-1,8E-1,-8.613728E-2,5.174203E-1,1.4224598E0,1.294964E-1,-5.9227467E-1,1.0588236E0,-3.2258064E-1,1.36E0,-2.9449153E-1,1.3205741E-1,-8.2987554E-2,4.922669E-1,1.0989011E-1,1.4979973E0,-2.4215247E-1,7.1586716E-1,-6.476314E-1,8E-1,1.3043479E0,-3.529412E-1,-4.347826E-1,1.7288135E0,-5.882353E-1,1.0588236E0,8.086904E-2,-2.3808542E-1,-1.2738854E-2,1.2E0,-4.430919E-1,-1.6830294E-1,-2.475442E-1,1.6080402E-1,-3.9065748E-1,-8.178439E-2,-5.4931235E-1,2.5742576E-1,-6.528244E-1,3.448276E-1,-4.3866172E-1,1.1344538E-1,9.198813E-1,1.1420205E-1,1.6564417E0,-1.4285715E-1,6.8421054E-1,-5.074627E-1,-6.173913E-1,8E-1,5.882353E-1,-5.660377E-1,1.6097561E0,1.1764706E-1,9.8146126E-2,-4.192536E-1,-8.530806E-2,4.133392E-1,3.2967034E-1,-3.3112583E-1,1.36E0,3.8373822E-1,-4.262295E-1,1.0588236E0,1.6069365E0,1.5384616E-1,3.7762237E-1,-5.209003E-1,-1.3612565E-1,1.1532034E0,-6.631717E-1,6.086956E-1],"categories":[],"categories_nodes":[],"categories_segments":[],"categories_sizes":[],"default_left":[1,1,1,1,1,1,1,1,1,1,1,1,1,1,1,1,1,1,1,1,1,1,1,1,1,1,1,1,1,1,1,1,1,1,1,1,1,1,0,1,1,1,1,1,0,1,1,1,1,1,1,1,1,1,1,1,0,0,0,0,0,0,0,0,0,0,0,0,0,0,0,0,0,0,0,0,0,0,0,0,0,0,0,0,0,0,0,0,0,0,0,0,0,0,0,0,0,0,0,0,0,0,0,0,0,0,0,0,0],"id":0,"left_children":[1,3,5,7,9,11,13,15,17,19,21,23,25,27,29,31,33,35,37,39,41,43,45,47,49,51,53,55,57,59,61,63,65,67,69,71,73,75,-1,77,79,81,83,85,-1,87,89,91,93,95,97,99,101,103,105,107,-1,-1,-1,-1,-1,-1,-1,-1,-1,-1,-1,-1,-1,-1,-1,-1,-1,-1,-1,-1,-1,-1,-1,-1,-1,-1,-1,-1,-1,-1,-1,-1,-1,-1,-1,-1,-1,-1,-1,-1,-1,-1,-1,-1,-1,-1,-1,-1,-1,-1,-1,-1,-1],"loss_changes":[2.2016861E2,9.7074615E1,9.428474E1,7.023331E1,4.849499E1,8.739027E1,1.945449E1,3.0865738E1,2.1324371E1,4.2517883E1,1.2177542E1,6.346003E1,5.323741E1,7.1217957E0,1.0799795E1,3.265323E1,2.7738434E1,2.2772705E1,4.786484E0,4.2239246E1,3.25552E1,5.3699226E0,9.597221E0,4.9848957E1,5.5824333E1,3.3748596E1,2.7988617E1,4.7741776E0,2.9060106E0,8.288554E0,4.537815E0,2.5017551E1,2.7387579E1,1.8642761E1,1.8617256E1,2.2339035E1,7.771637E0,3.160492E0,0E0,2.6187672E1,2.7259354E1,1.7359093E1,1.2625436E1,4.567829E0,0E0,2.051484E0,1.7498989E0,2.316267E1,3.996794E1,2.478665E1,5.275702E1,1.2025178E1,1.3462341E1,9.828124E0,2.5401123E1,4.164421E0,0E0,0E0,0E0,0E0,0E0,0E0,0E0,0E0,0E0,0E0,0E0,0E0,0E0,0E0,0E0,0E0,0E0,0E0,0E0,0E0,0E0,0E0,0E0,0E0,0E0,0E0,0E0,0E0,0E0,0E0,0E0,0E0,0E0,0E0,0E0,0E0,0E0,0E0,0E0,0E0,0E0,0E0,0E0,0E0,0E0,0E0,0E0,0E0,0E0,0E0,0E0,0E0,0E0],"parents":[2147483647,0,0,1,1,2,2,3,3,4,4,5,5,6,6,7,7,8,8,9,9,10,10,11,11,12,12,13,13,14,14,15,15,16,16,17,17,18,18,19,19,20,20,21,21,22,22,23,23,24,24,25,25,26,26,27,27,28,28,29,29,30,30,31,31,32,32,33,33,34,34,35,35,36,36,37,37,39,39,40,40,41,41,42,42,43,43,45,45,46,46,47,47,48,48,49,49,50,50,51,51,52,52,53,53,54,54,55,55],"right_children":[2,4,6,8,10,12,14,16,18,20,22,24,26,28,30,32,34,36,38,40,42,44,46,48,50,52,54,56,58,60,62,64,66,68,70,72,74,76,-1,78,80,82,84,86,-1,88,90,92,94,96,98,100,102,104,106,108,-1,-1,-1,-1,-1,-1,-1,-1,-1,-1,-1,-1,-1,-1,-1,-1,-1,-1,-1,-1,-1,-1,-1,-1,-1,-1,-1,-1,-1,-1,-1,-1,-1,-1,-1,-1,-1,-1,-1,-1,-1,-1,-1,-1,-1,-1,-1,-1,-1,-1,-1,-1,-1],"split_conditions":[4.5586977E-2,2.1213995E-2,3.6663103E-1,6.9847784E-4,2.1864474E-1,1.3808575E-1,1.4931026E-1,7.854996E-2,2.5728458E-1,6.3359934E-1,3.0432165E-1,6.352676E-3,4.1923165E-1,1.1507995E-1,3.2761255E-3,4.017393E-2,6.129793E-1,7.8447014E-2,5.11691E-1,4.1367978E-1,2.9808444E-1,9.598459E-1,2.2389305E-1,1.7521446E-6,9.20304E-6,5.600138E-1,1.9031885E-1,6.5353143E-1,9.25835E-1,5.8455193E-1,7.7859527E-1,1.4429798E-3,2.426692E-5,2.3668933E0,6.071138E-4,9.008105E-1,8.7068456E-1,8.621998E-1,2.4000001E-1,1.4534404E0,3.1015214E-2,1.8295443E-1,1.7626977E-1,6.4405575E-2,3.176471E-1,2.6714886E-2,1.6311064E0,2.141248E-3,1.1525958E0,7.984645E-4,1.3154422E-2,1.742475E0,2.749575E-1,7.812518E-2,1.1416958E-5,7.839129E-1,2.4000001E-1,3.9130437E-1,-1.0588236E-1,-1.3043478E-1,5.186441E-1,-1.7647061E-1,3.176471E-1,2.4260713E-2,-7.142563E-2,-3.8216563E-3,3.6E-1,-1.3292758E-1,-5.0490882E-2,-7.426326E-2,4.824121E-2,-1.1719725E-1,-2.4535319E-2,-1.6479371E-1,7.722773E-2,-1.9584733E-1,1.0344828E-1,-1.3159852E-1,3.4033615E-2,2.759644E-1,3.4260616E-2,4.9693254E-1,-4.2857148E-2,2.0526317E-1,-1.5223882E-1,-1.852174E-1,2.4000001E-1,1.7647061E-1,-1.6981132E-1,4.8292685E-1,3.529412E-2,2.944384E-2,-1.2577608E-1,-2.5592418E-2,1.24001764E-1,9.890111E-2,-9.933775E-2,4.0800002E-1,1.1512147E-1,-1.2786886E-1,3.176471E-1,4.8208097E-1,4.615385E-2,1.1328671E-1,-1.562701E-1,-4.0837698E-2,3.4596103E-1,-1.9895153E-1,1.826087E-1],"split_indices":[8475,5876,492,3926,492,5876,13401,25,492,599,8910,7828,25,18727,9713,12506,2015,7826,9738,561,2,1329,5689,12581,12833,5407,1480,8306,2,1344,186,17,15684,0,8475,770,132,5036,0,2938,5647,27,2186,16757,0,5,1,2997,34,5592,25,10107,5647,287,12833,4698,0,0,0,0,0,0,0,0,0,0,0,0,0,0,0,0,0,0,0,0,0,0,0,0,0,0,0,0,0,0,0,0,0,0,0,0,0,0,0,0,0,0,0,0,0,0,0,0,0,0,0,0,0],"split_type":[0,0,0,0,0,0,0,0,0,0,0,0,0,0,0,0,0,0,0,0,0,0,0,0,0,0,0,0,0,0,0,0,0,0,0,0,0,0,0,0,0,0,0,0,0,0,0,0,0,0,0,0,0,0,0,0,0,0,0,0,0,0,0,0,0,0,0,0,0,0,0,0,0,0,0,0,0,0,0,0,0,0,0,0,0,0,0,0,0,0,0,0,0,0,0,0,0,0,0,0,0,0,0,0,0,0,0,0,0],"sum_hessian":[8.017125E3,5.640375E3,2.37675E3,4.894125E3,7.4625E2,2.16375E3,2.13E2,2.719125E3,2.175E3,6.17625E2,1.28625E2,1.927875E3,2.35875E2,1.96125E2,1.6875E1,1.091625E3,1.6275E3,1.7625E3,4.125E2,5.38125E2,7.95E1,1.16625E2,1.2E1,1.123125E3,8.0475E2,1.14375E2,1.215E2,1.93125E2,3E0,8.25E0,8.625E0,1.018125E3,7.35E1,1.176E3,4.515E2,1.115625E3,6.46875E2,4.11E2,1.5E0,3.705E2,1.67625E2,4.575E1,3.375E1,1.155E2,1.125E0,6.75E0,5.25E0,4.71E2,6.52125E2,2.4E2,5.6475E2,2.175E1,9.2625E1,5.475E1,6.675E1,1.91625E2,1.5E0,1.875E0,1.125E0,1.875E0,6.375E0,7.5E0,1.125E0,4.1325E2,6.04875E2,3.825E1,3.525E1,8.205E2,3.555E2,2.535E2,1.98E2,7.80375E2,3.3525E2,6.3525E2,1.1625E1,4.08375E2,2.625E0,1.335E2,2.37E2,8.325E1,8.4375E1,3.975E1,6E0,1.8E1,1.575E1,1.14E2,1.5E0,1.125E0,5.625E0,4.125E0,1.125E0,1.13625E2,3.57375E2,3.6825E2,2.83875E2,9E1,1.5E2,6.15E1,5.0325E2,1.425E1,7.5E0,8.55E1,7.125E0,1.6875E1,3.7875E1,2.2875E1,4.3875E1,1.8975E2,1.875E0],"tree_param":{"num_deleted":"0","num_feature":"20000","num_nodes":"109","size_leaf_vector":"0"}},{"base_weights":[-2.871931E-1,-3.3085215E-1,1.2118877E0,-3.625669E-1,5.531915E-1,-2.1153846E-1,1.6252662E0,-4.712531E-1,-1.8036357E-1,1.7291067E-2,1.4987212E0,-3.5543767E-1,9.787234E-1,1.8828316E0,-1.2765957E-1,-5.221826E-1,-2.1793452E-1,-7.136597E-2,-4.4665545E-1,-4.1618496E-1,4.431818E-1,-2.1782178E-1,1.7329463E0,-5.5E-1,6.4615387E-1,-4E-1,1.5428572E0,1.9141206E0,-1.5384616E-1,-4.8447204E-1,1.5428572E0,-5.346302E-1,-5.3619305E-3,-3.370213E-1,1.2630288E-1,-2.0739695E-1,1.5151015E-1,-5.0920826E-1,-1.8524332E-1,-4.89426E-1,9.4736844E-1,7.728155E-1,-4.3654823E-1,-6.0240966E-1,1.0769231E0,1.8392581E0,8E-2,-6.237942E-1,1.0588236E0,1.4146341E0,-5E-1,1.9397993E0,-8.695652E-2,-3.529412E-1,1.1764706E-1,-6.315789E-1,1.0588236E0,-5.3874344E-1,9.767442E-1,-2.4311183E-1,1.0656934E0,-3.5875216E-1,7.826087E-1,-2.728513E-3,1.2138728E0,-2.6508644E-1,5.1771116E-1,-4.689513E-2,5.032022E-1,-5.1891476E-1,8.292683E-1,9.411765E-2,-4.9833888E-1,-5.353846E-1,1.2E0,-3.529412E-1,1.4482758E0,1.1156813E0,-2.6865673E-1,-5.531915E-1,1.0588236E0,1.9225806E0,-5.7142857E-2,1.2E0,-5.263158E-1,-6.490066E-1,1.1764706E-1,1.959562E0,-3.529412E-1],"categories":[],"categories_nodes":[],"categories_segments":[],"categories_sizes":[],"default_left":[1,1,1,1,1,1,1,1,1,1,1,1,1,1,1,1,1,1,1,1,1,1,1,1,1,0,0,1,1,1,0,1,1,1,1,1,1,1,1,1,1,1,1,0,0,1,1,1,0,0,0,1,0,0,0,0,0,0,0,0,0,0,0,0,0,0,0,0,0,0,0,0,0,0,0,0,0,0,0,0,0,0,0,0,0,0,0,0,0],"id":1,"left_children":[1,3,5,7,9,11,13,15,17,19,21,23,25,27,29,31,33,35,37,39,41,43,45,47,49,-1,-1,51,53,55,-1,57,59,61,63,65,67,69,71,73,75,77,79,-1,-1,81,83,85,-1,-1,-1,87,-1,-1,-1,-1,-1,-1,-1,-1,-1,-1,-1,-1,-1,-1,-1,-1,-1,-1,-1,-1,-1,-1,-1,-1,-1,-1,-1,-1,-1,-1,-1,-1,-1,-1,-1,-1,-1],"loss_changes":[5.2517505E2,2.1866644E2,1.3398727E2,1.4888794E2,1.3691241E2,9.254317E0,7.975958E1,6.0669434E1,8.15978E1,3.2214878E1,3.967859E1,9.538727E0,5.1866255E0,1.0084351E1,1.47549095E1,2.5228027E1,3.2443283E1,6.0569004E1,1.3259186E1,9.102252E0,2.5856379E1,6.9352813E0,1.4987396E1,5.409361E0,7.86379E0,0E0,0E0,7.9470825E0,2.1719459E-1,5.2376976E0,0E0,2.4334595E1,2.400457E1,1.4574966E1,2.8613228E1,5.2023506E1,5.2871376E1,8.983871E0,1.3975971E1,7.067478E0,3.6049967E0,2.3287086E1,4.8809485E0,0E0,0E0,1.288916E1,4.8757896E0,8.0306435E-1,0E0,0E0,0E0,7.465515E0,0E0,0E0,0E0,0E0,0E0,0E0,0E0,0E0,0E0,0E0,0E0,0E0,0E0,0E0,0E0,0E0,0E0,0E0,0E0,0E0,0E0,0E0,0E0,0E0,0E0,0E0,0E0,0E0,0E0,0E0,0E0,0E0,0E0,0E0,0E0,0E0,0E0],"parents":[2147483647,0,0,1,1,2,2,3,3,4,4,5,5,6,6,7,7,8,8,9,9,10,10,11,11,12,12,13,13,14,14,15,15,16,16,17,17,18,18,19,19,20,20,21,21,22,22,23,23,24,24,27,27,28,28,29,29,31,31,32,32,33,33,34,34,35,35,36,36,37,37,38,38,39,39,40,40,41,41,42,42,45,45,46,46,47,47,51,51],"right_children":[2,4,6,8,10,12,14,16,18,20,22,24,26,28,30,32,34,36,38,40,42,44,46,48,50,-1,-1,52,54,56,-1,58,60,62,64,66,68,70,72,74,76,78,80,-1,-1,82,84,86,-1,-1,-1,88,-1,-1,-1,-1,-1,-1,-1,-1,-1,-1,-1,-1,-1,-1,-1,-1,-1,-1,-1,-1,-1,-1,-1,-1,-1,-1,-1,-1,-1,-1,-1,-1,-1,-1,-1,-1,-1],"split_conditions":[5.0819665E-1,7.446974E-1,4.7068197E-6,9.852412E-1,1.6878787E-1,9.99551E-1,2.0655997E-1,7.96993E-1,1.7971523E-1,2.629821E-1,4.227857E-1,1.206965E-1,3.618163E-2,8.246855E-1,3.6568627E-1,1.0563574E0,2.4320275E-7,5.175766E-1,4.7195172E-1,1.070656E-1,5.7070203E-2,1.2083454E-2,1.2747191E-1,2.0488822E-1,4.009075E-1,-1.20000005E-1,4.6285716E-1,3.0050406E-1,1.4303381E0,6.873932E-1,4.6285716E-1,2.2066686E-1,4.671639E-3,6.2970394E-1,1.1321285E0,2.2747114E-1,9.903582E-1,9.074849E-1,5.9970653E-1,2.3584864E-1,1.2291114E-1,1.65014E-1,9.6498674E-1,-1.807229E-1,3.2307696E-1,1.9564866E-1,1.0160315E0,2.0040858E0,3.176471E-1,4.2439026E-1,-1.5E-1,1.9039749E-1,-2.6086958E-2,-1.0588236E-1,3.529412E-2,-1.8947369E-1,3.176471E-1,-1.6162303E-1,2.9302326E-1,-7.2933555E-2,3.1970802E-1,-1.07625656E-1,2.3478262E-1,-8.185539E-4,3.6416185E-1,-7.952593E-2,1.5531336E-1,-1.406854E-2,1.5096067E-1,-1.5567443E-1,2.4878049E-1,2.8235296E-2,-1.4950167E-1,-1.6061538E-1,3.6E-1,-1.0588236E-1,4.3448275E-1,3.347044E-1,-8.059702E-2,-1.6595745E-1,3.176471E-1,5.767742E-1,-1.7142858E-2,3.6E-1,-1.5789475E-1,-1.9470198E-1,3.529412E-2,5.8786863E-1,-1.0588236E-1],"split_indices":[5320,301,1069,6390,7664,4,25,332,5012,1344,6,2680,136,845,5647,74,15885,162,141,13142,7826,14698,11579,10071,2646,0,0,11751,1,3286,0,17910,18805,3539,6,3539,2,3539,27,5320,8,3916,21,0,0,10339,209,11,0,0,0,15019,0,0,0,0,0,0,0,0,0,0,0,0,0,0,0,0,0,0,0,0,0,0,0,0,0,0,0,0,0,0,0,0,0,0,0,0,0],"split_type":[0,0,0,0,0,0,0,0,0,0,0,0,0,0,0,0,0,0,0,0,0,0,0,0,0,0,0,0,0,0,0,0,0,0,0,0,0,0,0,0,0,0,0,0,0,0,0,0,0,0,0,0,0,0,0,0,0,0,0,0,0,0,0,0,0,0,0,0,0,0,0,0,0,0,0,0,0,0,0,0,0,0,0,0,0,0,0,0,0],"sum_hessian":[8.017125E3,7.791E3,2.26125E2,7.52175E3,2.6925E2,5.1E1,1.75125E2,4.710375E3,2.811375E3,1.725E2,9.675E1,4.6125E1,4.875E0,1.52625E2,2.25E1,3.921E3,7.89375E2,1.99575E3,8.15625E2,8.55E1,8.7E1,1.1625E1,8.5125E1,3.9E1,7.125E0,1.5E0,3.375E0,1.50375E2,2.25E0,1.9125E1,3.375E0,3.82875E3,9.225E1,5.865E2,2.02875E2,1.239375E3,7.56375E2,6.57375E2,1.5825E2,8.175E1,3.75E0,6.3375E1,2.3625E1,9.375E0,2.25E0,7.9875E1,5.25E0,3.7875E1,1.125E0,4.125E0,3E0,1.485E2,1.875E0,1.125E0,1.125E0,1.8E1,1.125E0,3.819E3,9.75E0,7.6125E1,1.6125E1,5.76E2,1.05E1,1.8225E2,2.0625E1,1.148625E3,9.075E1,4.84125E2,2.7225E2,6.5325E2,4.125E0,8.4E1,7.425E1,8.025E1,1.5E0,1.125E0,2.625E0,4.7625E1,1.575E1,2.25E1,1.125E0,7.65E1,3.375E0,1.5E0,3.75E0,3.675E1,1.125E0,1.47375E2,1.125E0],"tree_param":{"num_deleted":"0","num_feature":"20000","num_nodes":"89","size_leaf_vector":"0"}},{"base_weights":[1.6565594E-1,7.8165285E-2,1.1570852E0,1.3739881E-1,-4.359816E-1,1.7050244E0,6.6034293E-1,1.832855E-1,-1.882749E-1,-4.9045935E-1,2.7272728E-1,1.7451386E0,-1.6949153E-1,-4.9021435E-1,1.3937948E0,1.24273896E-1,5.394897E-1,1.0211706E-1,-4.680084E-1,-2.1920465E-1,-5.499245E-1,-2.781457E-1,1.3972603E0,1.7858963E0,1.971831E-1,-5.6E-1,1.0588236E0,-5.4684514E-1,1.3142858E0,-3.834197E-1,1.9137135E0,2.5660038E-1,-9.0844855E-3,8.132361E-1,2.1546596E-1,-2.7472528E-3,1.0909091E0,-5.107459E-1,3.3526012E-1,-3.2173914E-1,5.882353E-1,-5.5654055E-1,1.2E0,7.058824E-1,-5.4545456E-1,-2.5E-1,1.7377049E0,1.822377E0,2.769231E-1,-5.6E-1,1.4482758E0,-6.044625E-1,3.529412E-1,7.532467E-1,-6.4984226E-1,1.9438815E0,-4.347826E-1,-2.2102045E-2,3.3189106E-1,2.005748E-1,-1.1399591E-1,1.1090595E0,5.31233E-1,-6.218656E-2,7.4615383E-1,-1.0350584E-1,4.5801526E-1,1.68E0,-0E0,3.6065573E-1,-5.442623E-1,1.0697675E0,-3.5789475E-1,-3.7402016E-1,1.0857143E0,1.3239436E0,-4.2857143E-1,-5.6305623E-1,7.692308E-1,1.4545455E0,-5E-1,-6.4377683E-1,1.0588236E0,-4.347826E-1,1.1764706E-1,1.858407E0,1.1764706E-1,1.8418278E0,-2.0689656E-1,-5.365854E-1,1.25E0,-6.2845445E-1,1.0588236E0,-5.365854E-1,1.3142858E0,1.6595745E0,-5.263158E-1,1.9683795E0,1.5384616E-1],"categories":[],"categories_nodes":[],"categories_segments":[],"categories_sizes":[],"default_left":[1,1,1,1,1,1,1,1,1,1,1,1,1,1,1,1,1,1,1,1,1,1,1,1,1,0,0,1,0,1,1,1,1,1,1,1,1,1,1,1,1,1,0,1,1,1,1,1,1,0,0,1,1,1,0,1,0,0,0,0,0,0,0,0,0,0,0,0,0,0,0,0,0,0,0,0,0,0,0,0,0,0,0,0,0,0,0,0,0,0,0,0,0,0,0,0,0,0,0],"id":2,"left_children":[1,3,5,7,9,11,13,15,17,19,21,23,25,27,29,31,33,35,37,39,41,43,45,47,49,-1,-1,51,-1,53,55,57,59,61,63,65,67,69,71,73,75,77,-1,79,81,83,85,87,89,-1,-1,91,93,95,-1,97,-1,-1,-1,-1,-1,-1,-1,-1,-1,-1,-1,-1,-1,-1,-1,-1,-1,-1,-1,-1,-1,-1,-1,-1,-1,-1,-1,-1,-1,-1,-1,-1,-1,-1,-1,-1,-1,-1,-1,-1,-1,-1,-1],"loss_changes":[6.95408E2,2.2448082E2,1.7582806E2,9.879251E1,2.9534409E1,2.3493408E1,2.8981708E2,1.2170026E2,6.638417E1,1.129158E1,3.445976E1,1.870929E1,4.1304884E0,1.4424976E1,1.943132E2,8.7722595E1,7.2825165E1,4.163413E1,1.4456665E1,1.0858875E1,7.3784943E0,1.0314764E1,1.0669041E1,1.5693298E1,9.218377E0,0E0,0E0,6.991852E0,0E0,1.5101213E1,1.2340515E1,5.236429E1,5.4500603E1,3.659668E1,5.5780334E1,1.6946392E1,2.4741817E1,1.174736E1,1.1392742E1,8.868136E0,1.1694994E1,5.4271393E0,0E0,8.40107E0,5.453168E0,3.2289004E-1,2.7634163E0,1.1714111E1,7.102533E0,0E0,0E0,5.5837784E0,7.9739294E0,1.2035603E1,0E0,6.7299194E0,0E0,0E0,0E0,0E0,0E0,0E0,0E0,0E0,0E0,0E0,0E0,0E0,0E0,0E0,0E0,0E0,0E0,0E0,0E0,0E0,0E0,0E0,0E0,0E0,0E0,0E0,0E0,0E0,0E0,0E0,0E0,0E0,0E0,0E0,0E0,0E0,0E0,0E0,0E0,0E0,0E0,0E0,0E0],"parents":[2147483647,0,0,1,1,2,2,3,3,4,4,5,5,6,6,7,7,8,8,9,9,10,10,11,11,12,12,13,13,14,14,15,15,16,16,17,17,18,18,19,19,20,20,21,21,22,22,23,23,24,24,27,27,29,29,30,30,31,31,32,32,33,33,34,34,35,35,36,36,37,37,38,38,39,39,40,40,41,41,43,43,44,44,45,45,46,46,47,47,48,48,51,51,52,52,53,53,55,55],"right_children":[2,4,6,8,10,12,14,16,18,20,22,24,26,28,30,32,34,36,38,40,42,44,46,48,50,-1,-1,52,-1,54,56,58,60,62,64,66,68,70,72,74,76,78,-1,80,82,84,86,88,90,-1,-1,92,94,96,-1,98,-1,-1,-1,-1,-1,-1,-1,-1,-1,-1,-1,-1,-1,-1,-1,-1,-1,-1,-1,-1,-1,-1,-1,-1,-1,-1,-1,-1,-1,-1,-1,-1,-1,-1,-1,-1,-1,-1,-1,-1,-1,-1,-1],"split_conditions":[4.277855E-1,8.4720716E-2,1.6070831E-1,8.284959E-2,2.2925767E-1,2.4621433E-2,2.4531995E-1,2.716897E-1,8.445403E-3,6.3662285E-1,5.0963116E-1,1.1140342E0,4.9288976E-1,9.781443E-1,2.8308618E-1,9.6659553E-1,6.305288E-8,1.3586242E-1,2.7855182E0,1.5018127E-4,7.3279846E-1,3.3540938E-2,1.428845E-1,2.785215E-1,5.98071E-1,-1.6800001E-1,3.176471E-1,1.4366436E-1,3.9428574E-1,6.9427535E-2,2.2073852E-1,3.345548E-1,6.238642E-1,1.4718559E0,7.6528686E-1,2.001402E0,1.5689251E-1,4.391644E-10,1.4092577E0,7.406153E-2,2.0119944E0,9.107299E-1,3.6E-1,9.740589E-1,3.1349397E-1,2.3148868E0,4.3710777E-1,1.8277622E0,1.3305654E-1,-1.6800001E-1,4.3448275E-1,1.3824368E-1,7.188788E-2,4.560018E-2,-1.9495268E-1,3.782807E-1,-1.3043478E-1,-6.630614E-3,9.9567324E-2,6.0172442E-2,-3.4198776E-2,3.3271784E-1,1.5936992E-1,-1.8655969E-2,2.2384615E-1,-3.1051753E-2,1.3740459E-1,5.04E-1,-0E0,1.0819672E-1,-1.632787E-1,3.2093024E-1,-1.0736843E-1,-1.1220605E-1,3.2571432E-1,3.971831E-1,-1.2857144E-1,-1.6891688E-1,2.3076925E-1,4.3636367E-1,-1.5E-1,-1.9313306E-1,3.176471E-1,-1.3043478E-1,3.529412E-2,5.575221E-1,3.529412E-2,5.5254835E-1,-6.206897E-2,-1.6097562E-1,3.75E-1,-1.8853635E-1,3.176471E-1,-1.6097562E-1,3.9428574E-1,4.9787238E-1,-1.5789475E-1,5.905139E-1,4.615385E-2],"split_indices":[492,5876,27,5763,492,17910,4,4215,6092,2410,472,2096,163,967,25,6959,12952,492,541,19732,8278,563,162,11508,493,0,0,12605,0,5320,17639,48,954,10940,3489,12489,27,27,8494,16987,9911,2041,0,432,9439,0,206,613,40,0,0,18270,1179,11066,0,10596,0,0,0,0,0,0,0,0,0,0,0,0,0,0,0,0,0,0,0,0,0,0,0,0,0,0,0,0,0,0,0,0,0,0,0,0,0,0,0,0,0,0,0],"split_type":[0,0,0,0,0,0,0,0,0,0,0,0,0,0,0,0,0,0,0,0,0,0,0,0,0,0,0,0,0,0,0,0,0,0,0,0,0,0,0,0,0,0,0,0,0,0,0,0,0,0,0,0,0,0,0,0,0,0,0,0,0,0,0,0,0,0,0,0,0,0,0,0,0,0,0,0,0,0,0,0,0,0,0,0,0,0,0,0,0,0,0,0,0,0,0,0,0,0,0],"sum_hessian":[8.017125E3,7.368E3,6.49125E2,6.6075E3,7.605E2,3.075E2,3.41625E2,5.791875E3,8.15625E2,7.065E2,5.4E1,3.01125E2,6.375E0,1.33125E2,2.085E2,4.969875E3,8.22E2,4.005E2,4.15125E2,1.27875E2,5.78625E2,3.675E1,1.725E1,2.9325E2,7.875E0,5.25E0,1.125E0,1.2975E2,3.375E0,4.725E1,1.6125E2,2.494125E3,2.47575E3,4.4475E2,3.7725E2,3.63E2,3.75E1,3.945E2,2.0625E1,1.14E2,1.3875E1,5.77125E2,1.5E0,7.5E0,2.925E1,3E0,1.425E1,2.86125E2,7.125E0,5.25E0,2.625E0,1.2225E2,7.5E0,8.625E0,3.8625E1,1.59375E2,1.875E0,5.30625E2,1.9635E3,8.25375E2,1.650375E3,2.15625E2,2.29125E2,2.4825E2,1.29E2,2.985E2,6.45E1,2.4E1,1.35E1,1.425E1,3.8025E2,9.75E0,1.0875E1,1.10625E2,3.375E0,7.875E0,6E0,5.74875E2,2.25E0,4.5E0,3E0,2.8125E1,1.125E0,1.875E0,1.125E0,1.3125E1,1.125E0,2.835E2,2.625E0,4.125E0,3E0,1.21125E2,1.125E0,4.125E0,3.375E0,4.875E0,3.75E0,1.57125E2,2.25E0],"tree_param":{"num_deleted":"0","num_feature":"20000","num_nodes":"99","size_leaf_vector":"0"}},{"base_weights":[2.6218724E-1,5.5426943E-1,-1.4196445E-2,6.8886703E-1,-1.9249319E-1,-1.00519426E-1,4.0454224E-1,9.632791E-1,3.9813158E-1,2.1753713E-1,-5.100372E-1,-1.6355993E-1,6.454034E-1,7.332647E-1,-3.2272726E-1,6.9618624E-1,1.2456034E0,2.5036818E-1,8.168509E-1,-3.1451613E-1,6.9446963E-1,-5.627171E-1,8.037383E-1,4.7097586E-2,-3.0933368E-1,9.282815E-1,6.042296E-3,-3.3782384E-1,1.0843867E0,-3.8016528E-1,1.027027E0,5.0542116E-1,1.1070944E0,1.3383665E0,5.3608245E-1,7.094045E-2,5.7719713E-1,1.0520647E0,3.4605145E-1,-3.831579E-1,1.04E0,1.2460064E0,-2.886598E-2,1.3846154E0,-5.8064514E-1,1.5492958E0,-5.4545456E-1,-1.6527943E-1,4.4401222E-1,-3.3768374E-1,8.668555E-1,1.0595151E0,-5.6E-1,-1.63606E-1,1.4366198E0,-4.2209944E-1,8.235294E-1,1.22961104E-1,1.4387277E0,-4.4723618E-1,6.181818E-1,-4.827586E-1,1.6981132E0,7.6463264E-1,-2.0100502E-2,1.2359778E0,1.6528925E-2,1.0609345E0,1.5697564E0,1.5068493E0,3.0721003E-1,-8.6876154E-2,4.4468784E-1,8.600613E-1,1.8335684E-1,5.830721E-1,1.2340425E0,2.8683182E-2,1E0,1E0,-4.276458E-1,-4E-1,1.5789474E0,1.637931E0,1.1764706E-1,5.631068E-1,-4.5296168E-1,-5.9552765E-1,7.5E-1,1.7419355E0,1.1764706E-1,-2.5245392E-1,3.810549E-1,8.136542E-1,7.912088E-2,-3.6357218E-1,5.8354115E-1,-1.2658228E-1,1.6059114E0,1.2473868E0,4.524887E-2,-6.2068963E-1,1.1764706E-1,3.923445E-1,-4.522613E-1,1.7419355E0,-3.529412E-1,-4.712514E-1,1.3846154E0,1.4893616E0,-4.827586E-1,-2.5E-1,1.2690356E0,1.5967828E0,3.4875444E-1,-4.9222797E-1,8.5714287E-1,-4.1509435E-1,1.3846154E0],"categories":[],"categories_nodes":[],"categories_segments":[],"categories_sizes":[],"default_left":[1,1,1,1,1,1,1,1,1,1,1,1,1,1,1,1,1,1,1,1,1,1,1,1,1,1,1,1,1,1,1,1,1,1,1,1,1,1,1,1,1,1,1,0,1,1,0,1,1,1,1,1,1,1,1,1,1,1,1,1,1,0,0,0,0,0,0,0,0,0,0,0,0,0,0,0,0,0,0,0,0,0,0,0,0,0,0,0,0,0,0,0,0,0,0,0,0,0,0,0,0,0,0,0,0,0,0,0,0,0,0,0,0,0,0,0,0,0,0],"id":3,"left_children":[1,3,5,7,9,11,13,15,17,19,21,23,25,27,29,31,33,35,37,39,41,43,45,47,49,51,53,55,57,59,61,63,65,67,69,71,73,75,77,79,81,83,85,-1,87,89,-1,91,93,95,97,99,101,103,105,107,109,111,113,115,117,-1,-1,-1,-1,-1,-1,-1,-1,-1,-1,-1,-1,-1,-1,-1,-1,-1,-1,-1,-1,-1,-1,-1,-1,-1,-1,-1,-1,-1,-1,-1,-1,-1,-1,-1,-1,-1,-1,-1,-1,-1,-1,-1,-1,-1,-1,-1,-1,-1,-1,-1,-1,-1,-1,-1,-1,-1,-1],"loss_changes":[6.472849E2,3.919679E2,1.4899246E2,2.6315417E2,7.772801E1,1.607961E2,1.6866135E2,1.27220825E2,9.913774E1,6.641637E1,2.3724007E1,9.6799576E1,4.819391E1,1.8295453E2,1.7446424E1,6.803882E1,5.354895E1,6.964063E1,4.5966125E1,1.1927554E1,5.5040672E1,1.2111061E1,1.4298993E1,1.0880411E2,6.2410355E1,3.6677307E1,2.0318054E1,1.2153633E1,1.24466705E2,1.4455261E1,1.0191844E1,8.167999E1,3.886081E1,4.5100586E1,2.108871E1,4.535274E1,4.6743088E1,2.3049408E1,2.9208872E1,7.734783E0,5.4821043E0,3.441194E1,1.5475161E1,0E0,6.8158875E0,2.2427235E0,0E0,4.0150024E1,6.0614388E1,4.3611496E1,3.2600117E1,3.2361206E1,7.156186E-1,1.2193237E1,5.463932E0,1.0698408E1,8.112037E0,4.2901085E1,4.5483765E1,1.2100494E1,1.1463888E1,0E0,0E0,0E0,0E0,0E0,0E0,0E0,0E0,0E0,0E0,0E0,0E0,0E0,0E0,0E0,0E0,0E0,0E0,0E0,0E0,0E0,0E0,0E0,0E0,0E0,0E0,0E0,0E0,0E0,0E0,0E0,0E0,0E0,0E0,0E0,0E0,0E0,0E0,0E0,0E0,0E0,0E0,0E0,0E0,0E0,0E0,0E0,0E0,0E0,0E0,0E0,0E0,0E0,0E0,0E0,0E0,0E0,0E0],"parents":[2147483647,0,0,1,1,2,2,3,3,4,4,5,5,6,6,7,7,8,8,9,9,10,10,11,11,12,12,13,13,14,14,15,15,16,16,17,17,18,18,19,19,20,20,21,21,22,22,23,23,24,24,25,25,26,26,27,27,28,28,29,29,30,30,31,31,32,32,33,33,34,34,35,35,36,36,37,37,38,38,39,39,40,40,41,41,42,42,44,44,45,45,47,47,48,48,49,49,50,50,51,51,52,52,53,53,54,54,55,55,56,56,57,57,58,58,59,59,60,60],"right_children":[2,4,6,8,10,12,14,16,18,20,22,24,26,28,30,32,34,36,38,40,42,44,46,48,50,52,54,56,58,60,62,64,66,68,70,72,74,76,78,80,82,84,86,-1,88,90,-1,92,94,96,98,100,102,104,106,108,110,112,114,116,118,-1,-1,-1,-1,-1,-1,-1,-1,-1,-1,-1,-1,-1,-1,-1,-1,-1,-1,-1,-1,-1,-1,-1,-1,-1,-1,-1,-1,-1,-1,-1,-1,-1,-1,-1,-1,-1,-1,-1,-1,-1,-1,-1,-1,-1,-1,-1,-1,-1,-1,-1,-1,-1,-1,-1,-1,-1,-1],"split_conditions":[4.1347492E-1,1.9379814E-1,1.60506E-2,7.34912E-1,9.041248E-2,8.6394715E-1,3.6418408E-1,7.465297E-1,4.2447653E-1,5.67379E-2,1.6969414E0,1.6482234E-1,1.1783811E0,1.7292571E-1,1.1293952E0,3.0395726E-2,8.4760344E-1,5.216938E-1,1.6858663E-2,9.0191674E-1,1.2868983E-3,4.3053093E0,5.0939236E0,4.767189E-1,2.4640308E-1,6.902733E-1,1.1659145E0,3.0417904E-1,3.5351697E-1,1.7475057E-1,4.8303464E-1,3.828312E-5,7.925137E-1,2.2059789E0,4.781138E0,1.8244565E0,1.2680525E-1,3.2765007E-1,2.261319E-2,7.024216E-1,1.0796525E-1,4.0197685E-1,5.4468415E-5,4.1538465E-1,1.3778618E-1,9.5441455E-1,-1.6363637E-1,3.8545096E-1,1.2955042E0,4.1785932E-1,1.1230423E0,4.1989886E-5,6.9553983E-1,1.321645E-6,9.643324E-1,6.2676907E-1,4.0214798E-1,1.5691157E-2,8.154294E-2,1.3184414E0,7.93787E-2,-1.4482759E-1,5.09434E-1,2.293898E-1,-6.030151E-3,3.7079334E-1,4.9586776E-3,3.1828037E-1,4.7092694E-1,4.520548E-1,9.216301E-2,-2.6062848E-2,1.3340636E-1,2.580184E-1,5.500705E-2,1.7492165E-1,3.7021276E-1,8.604955E-3,3E-1,3E-1,-1.2829375E-1,-1.20000005E-1,4.7368425E-1,4.9137932E-1,3.529412E-2,1.6893204E-1,-1.3588852E-1,-1.786583E-1,2.2500001E-1,5.225807E-1,3.529412E-2,-7.573618E-2,1.1431648E-1,2.4409626E-1,2.3736266E-2,-1.0907166E-1,1.7506236E-1,-3.7974685E-2,4.8177344E-1,3.7421605E-1,1.3574662E-2,-1.8620689E-1,3.529412E-2,1.17703356E-1,-1.356784E-1,5.225807E-1,-1.0588236E-1,-1.4137542E-1,4.1538465E-1,4.4680852E-1,-1.4482759E-1,-7.5E-2,3.807107E-1,4.7903487E-1,1.04626335E-1,-1.4766839E-1,2.5714287E-1,-1.2452831E-1,4.1538465E-1],"split_indices":[2015,492,5763,5407,3926,17,1,954,1005,27,17,60,3297,27,11234,10239,332,25,1351,3050,3,17253,17253,25,12812,492,790,7216,2817,12812,4675,7664,74,10725,17253,57,60,2665,11396,12008,746,561,3926,0,19980,12,0,1704,11273,4049,58,14347,6,11399,381,1336,1350,11895,14458,2235,9362,0,0,0,0,0,0,0,0,0,0,0,0,0,0,0,0,0,0,0,0,0,0,0,0,0,0,0,0,0,0,0,0,0,0,0,0,0,0,0,0,0,0,0,0,0,0,0,0,0,0,0,0,0,0,0,0,0,0],"split_type":[0,0,0,0,0,0,0,0,0,0,0,0,0,0,0,0,0,0,0,0,0,0,0,0,0,0,0,0,0,0,0,0,0,0,0,0,0,0,0,0,0,0,0,0,0,0,0,0,0,0,0,0,0,0,0,0,0,0,0,0,0,0,0,0,0,0,0,0,0,0,0,0,0,0,0,0,0,0,0,0,0,0,0,0,0,0,0,0,0,0,0,0,0,0,0,0,0,0,0,0,0,0,0,0,0,0,0,0,0,0,0,0,0,0,0,0,0,0,0],"sum_hessian":[8.017125E3,3.897375E3,4.11975E3,3.30225E3,5.95125E2,3.41625E3,7.035E2,1.697625E3,1.604625E3,2.59875E2,3.3525E2,3.15075E3,2.655E2,4.845E2,2.19E2,8.74125E2,8.235E2,1.18725E3,4.17375E2,1.23E2,1.36875E2,3.22875E2,1.2375E1,1.288875E3,1.861875E3,1.8375E2,8.175E1,1.19625E2,3.64875E2,2.1075E2,8.25E0,5.985E2,2.75625E2,7.275E2,9.6E1,7.6725E2,4.2E2,2.775E2,1.39875E2,1.1775E2,5.25E0,7.725E1,5.9625E1,2.25E0,3.20625E2,7.875E0,4.5E0,8.4E2,4.48875E2,1.81875E3,4.3125E1,1.69125E2,1.4625E1,7.3875E1,7.875E0,1.12125E2,7.5E0,9.8625E1,2.6625E2,1.98E2,1.275E1,2.625E0,5.625E0,4.005E2,1.98E2,2.46375E2,2.925E1,3.33375E2,3.94125E2,1.725E1,7.875E1,5.4E2,2.2725E2,2.4375E2,1.7625E2,7.875E1,1.9875E2,9.4875E1,4.5E1,3E0,1.1475E2,1.5E0,3.75E0,5.7E1,2.025E1,2.475E1,3.4875E1,3.17625E2,3E0,6.75E0,1.125E0,7.24875E2,1.15125E2,2.22375E2,2.265E2,1.769625E3,4.9125E1,1.875E1,2.4375E1,1.425E2,2.6625E1,1.35E1,1.125E0,2.5125E1,4.875E1,6.75E0,1.125E0,1.09875E2,2.25E0,4.875E0,2.625E0,7.5E1,2.3625E1,2.32125E2,3.4125E1,1.92E2,6E0,5.625E0,7.125E0],"tree_param":{"num_deleted":"0","num_feature":"20000","num_nodes":"119","size_leaf_vector":"0"}},{"base_weights":[-1.1413726E-1,-2.3430665E-1,6.465452E-2,-2.8106868E-1,6.8658985E-2,1.279015E-1,-3.661492E-1,-1.786598E-1,-4.052449E-1,3.2650396E-1,-1.2599799E-1,-7.714266E-2,2.7050185E-1,-5.308229E-1,-3.903007E-2,-1.0582244E-1,-3.416814E-1,-4.3526417E-1,-1.157639E-1,6.1950576E-1,-1.580277E-1,-2.8238136E-1,4.196561E-1,-2.1562545E-1,1.6764124E-1,-2.6157781E-2,3.9251435E-1,-5.5803627E-1,5.2683145E-1,2.5665715E-1,-4.6101347E-1,-1.2689254E-1,5.713747E-1,-3.6900097E-1,1.8636814E-1,-4.9306336E-1,-3.0833662E-1,-3.5938737E-1,3.729743E-1,8.276553E-1,-1.7175192E-1,-3.949804E-1,5.9565604E-1,-3.3416304E-1,5.158912E-1,9.563387E-1,8.390333E-3,-3.9458814E-1,-2.5781374E-2,4.15145E-1,-1.6945301E-1,1.8690614E-1,-3.978324E-1,4.918511E-1,3.156184E-2,-5.7612413E-1,6.313414E-1,-4.7586465E-1,1.2733688E0,-5.842378E-2,8.1806415E-1,-5.455526E-1,1.0598963E0,-4.0633213E-2,-2.618831E-1,-5.1025555E-2,1.2944968E0,-3.9588666E-1,1.7609164E-1,6.4932716E-1,-4.1775435E-1,-5.452428E-1,-3.680325E-1,-3.4093404E-1,3.6298573E-1,1.4366901E-1,-5.403186E-1,9.774314E-1,-2.2116686E-1,9.741304E-1,-1.7996743E-1,-4.4066045E-1,1.0796148E0,-4.635255E-1,9.420934E-1,-1.5526728E-1,1.1308954E0,-3.9261863E-1,3.2052544E-1,-5.720239E-1,1.14397E0,1.1598625E0,-5.3538615E-1,-1.562278E-1,1.2479293E0,-4.224677E-1,4.1370386E-1,-1.5945788E-1,5.870462E-1,9.0908515E-1,1.5467255E-1,-2.7155364E-1,4.5654464E-1,4.122934E-2,8.5860777E-1,9.7687855E-2,-5.413031E-1,3.0015796E-1,7.7338326E-1,9.348466E-1,-1.3665499E-1,-6.0477096E-1,9.782431E-2,-3.5707507E-1,1.171211E0,5.516865E-1,-3.364418E-1,1.1337435E0,-4.0177977E-1,-5.9909874E-1,7.60633E-1],"categories":[],"categories_nodes":[],"categories_segments":[],"categories_sizes":[],"default_left":[1,1,1,1,1,1,1,1,1,1,1,1,1,1,1,1,1,1,1,1,1,1,1,1,1,1,1,1,1,1,1,1,1,1,1,1,1,1,1,1,1,1,1,1,1,1,1,1,1,1,1,1,1,1,1,1,1,0,0,1,1,1,0,0,0,0,0,0,0,0,0,0,0,0,0,0,0,0,0,0,0,0,0,0,0,0,0,0,0,0,0,0,0,0,0,0,0,0,0,0,0,0,0,0,0,0,0,0,0,0,0,0,0,0,0,0,0,0,0,0,0],"id":4,"left_children":[1,3,5,7,9,11,13,15,17,19,21,23,25,27,29,31,33,35,37,39,41,43,45,47,49,51,53,55,57,59,61,63,65,67,69,71,73,75,77,79,81,83,85,87,89,91,93,95,97,99,101,103,105,107,109,111,113,-1,-1,115,117,119,-1,-1,-1,-1,-1,-1,-1,-1,-1,-1,-1,-1,-1,-1,-1,-1,-1,-1,-1,-1,-1,-1,-1,-1,-1,-1,-1,-1,-1,-1,-1,-1,-1,-1,-1,-1,-1,-1,-1,-1,-1,-1,-1,-1,-1,-1,-1,-1,-1,-1,-1,-1,-1,-1,-1,-1,-1,-1,-1],"loss_changes":[1.6571631E2,6.536603E1,8.453427E1,5.0743317E1,3.1036366E1,7.910109E1,2.137635E1,2.5988373E1,1.5637299E1,3.785192E1,3.0207104E1,3.766909E1,5.775801E1,7.896286E0,1.684865E1,2.170831E1,9.826431E0,1.1844879E1,2.0492153E1,2.7469616E1,1.8274254E1,1.1525759E1,1.7417374E1,2.409436E1,3.358434E1,3.6967884E1,4.0520477E1,5.913933E0,5.9505725E0,1.4107327E1,7.72727E0,1.7122456E1,2.074075E1,9.499641E0,9.762958E0,7.1189575E0,1.1379063E1,1.0509375E1,2.0818758E1,1.9589127E1,1.2383036E1,7.534958E0,1.004658E1,1.0020098E1,1.2355351E1,1.1017113E1,9.521206E0,8.403049E0,2.8384314E1,2.9697159E1,1.1039088E1,2.9007633E1,1.2144018E1,4.7608932E1,3.7362793E1,4.9755325E0,2.7350779E0,0E0,0E0,8.97936E0,1.1483843E1,4.1859264E0,0E0,0E0,0E0,0E0,0E0,0E0,0E0,0E0,0E0,0E0,0E0,0E0,0E0,0E0,0E0,0E0,0E0,0E0,0E0,0E0,0E0,0E0,0E0,0E0,0E0,0E0,0E0,0E0,0E0,0E0,0E0,0E0,0E0,0E0,0E0,0E0,0E0,0E0,0E0,0E0,0E0,0E0,0E0,0E0,0E0,0E0,0E0,0E0,0E0,0E0,0E0,0E0,0E0,0E0,0E0,0E0,0E0,0E0,0E0],"parents":[2147483647,0,0,1,1,2,2,3,3,4,4,5,5,6,6,7,7,8,8,9,9,10,10,11,11,12,12,13,13,14,14,15,15,16,16,17,17,18,18,19,19,20,20,21,21,22,22,23,23,24,24,25,25,26,26,27,27,28,28,29,29,30,30,31,31,32,32,33,33,34,34,35,35,36,36,37,37,38,38,39,39,40,40,41,41,42,42,43,43,44,44,45,45,46,46,47,47,48,48,49,49,50,50,51,51,52,52,53,53,54,54,55,55,56,56,59,59,60,60,61,61],"right_children":[2,4,6,8,10,12,14,16,18,20,22,24,26,28,30,32,34,36,38,40,42,44,46,48,50,52,54,56,58,60,62,64,66,68,70,72,74,76,78,80,82,84,86,88,90,92,94,96,98,100,102,104,106,108,110,112,114,-1,-1,116,118,120,-1,-1,-1,-1,-1,-1,-1,-1,-1,-1,-1,-1,-1,-1,-1,-1,-1,-1,-1,-1,-1,-1,-1,-1,-1,-1,-1,-1,-1,-1,-1,-1,-1,-1,-1,-1,-1,-1,-1,-1,-1,-1,-1,-1,-1,-1,-1,-1,-1,-1,-1,-1,-1,-1,-1,-1,-1,-1,-1],"split_conditions":[1.54762305E-2,2.1213995E-2,2.3640749E-1,1.7614181E-4,2.2240746E-1,2.180883E-1,1.9327527E-1,2.7869147E-1,4.864081E-6,3.0851036E-1,3.281985E-1,3.3907983E-1,8.901248E-9,1.1164756E0,4.8398975E-1,1.2124908E-1,1.1098411E0,5.4304037E0,1.9500214E-1,3.0048588E-7,2.780041E-1,8.42107E-1,4.286412E-6,3.3810938E-4,4.2930137E-6,5.429243E-9,4.1979916E-2,2.1246435E-1,8.0496323E-1,6.663424E-1,1.621069E-1,3.4093778E0,8.43164E-2,5.8129215E-1,1.3065803E0,8.162798E-2,1.1680722E0,9.8897755E-2,1.292823E-1,2.3227003E0,3.532532E-6,2.0326052E-2,5.185927E-5,1.7196421E-1,4.528928E-5,1.1181288E0,5.7373893E-1,4.3220562E-1,1.4047951E-3,6.122479E-3,6.289635E-2,8.573841E-9,6.1555974E-9,6.9518816E-1,6.084038E-5,6.419374E-1,7.422296E-1,-1.427594E-1,3.8201067E-1,2.1133173E-2,2.2942576E-1,2.2441399E-1,3.179689E-1,-1.2189965E-2,-7.8564934E-2,-1.5307667E-2,3.8834906E-1,-1.18766E-1,5.2827496E-2,1.9479816E-1,-1.253263E-1,-1.6357285E-1,-1.1040975E-1,-1.02280214E-1,1.0889573E-1,4.3100704E-2,-1.6209559E-1,2.9322943E-1,-6.6350065E-2,2.9223913E-1,-5.3990234E-2,-1.3219814E-1,3.2388443E-1,-1.3905765E-1,2.8262803E-1,-4.6580188E-2,3.3926862E-1,-1.17785595E-1,9.615763E-2,-1.7160718E-1,3.4319103E-1,3.4795877E-1,-1.6061585E-1,-4.686834E-2,3.743788E-1,-1.2674032E-1,1.2411116E-1,-4.7837365E-2,1.7611387E-1,2.7272555E-1,4.6401765E-2,-8.146609E-2,1.369634E-1,1.2368803E-2,2.5758234E-1,2.9306358E-2,-1.6239093E-1,9.004739E-2,2.3201498E-1,2.8045398E-1,-4.09965E-2,-1.814313E-1,2.9347295E-2,-1.07122526E-1,3.513633E-1,1.6550596E-1,-1.00932546E-1,3.4012306E-1,-1.20533936E-1,-1.7972963E-1,2.281899E-1],"split_indices":[8475,5876,492,3926,25,6,5620,2511,19949,17,141,94,8821,5349,25,12506,77,17253,141,16339,1518,2015,12237,12581,12605,16339,12749,13811,8155,27,16637,10763,8171,4519,8654,1712,4871,2433,27,0,19706,18573,13927,5763,10201,4,1826,8226,16860,6017,13178,18196,11638,4873,3924,2678,48,0,0,8713,6795,11166,0,0,0,0,0,0,0,0,0,0,0,0,0,0,0,0,0,0,0,0,0,0,0,0,0,0,0,0,0,0,0,0,0,0,0,0,0,0,0,0,0,0,0,0,0,0,0,0,0,0,0,0,0,0,0,0,0,0,0],"split_type":[0,0,0,0,0,0,0,0,0,0,0,0,0,0,0,0,0,0,0,0,0,0,0,0,0,0,0,0,0,0,0,0,0,0,0,0,0,0,0,0,0,0,0,0,0,0,0,0,0,0,0,0,0,0,0,0,0,0,0,0,0,0,0,0,0,0,0,0,0,0,0,0,0,0,0,0,0,0,0,0,0,0,0,0,0,0,0,0,0,0,0,0,0,0,0,0,0,0,0,0,0,0,0,0,0,0,0,0,0,0,0,0,0,0,0,0,0,0,0,0,0],"sum_hessian":[7.7113027E3,4.6115083E3,3.0997942E3,3.994967E3,6.1654156E2,2.7035803E3,3.9621384E2,2.1907117E3,1.8042552E3,2.6493204E2,3.516095E2,1.1091703E3,1.59441E3,2.6312997E2,1.3308388E2,1.5153217E3,6.753901E2,1.6342765E3,1.6997871E2,1.6492278E2,1.0000926E2,2.7366122E2,7.794827E1,7.0847845E2,4.0069183E2,4.648835E2,1.1295265E3,2.5699E2,6.139964E0,7.84824E1,5.460148E1,1.4703851E3,4.493649E1,6.424528E2,3.2937225E1,1.1209454E3,5.133311E2,1.1361114E2,5.636758E1,1.305374E2,3.438538E1,7.64499E1,2.355936E1,2.5753693E2,1.61243E1,3.324272E1,4.470555E1,3.6413565E2,3.443428E2,2.309157E2,1.6977612E2,2.958077E2,1.690758E2,8.8547473E2,2.4405174E2,2.5364818E2,3.3418255E0,2.77515E0,3.3648138E0,5.0843315E1,2.7639084E1,5.233382E1,2.267656E0,8.979157E2,5.724695E2,2.4649656E1,2.0286833E1,6.125154E2,2.9937483E1,1.8604872E1,1.4332354E1,7.8851263E2,3.3243277E2,4.900289E2,2.3302216E1,3.010737E1,8.350377E1,2.7621439E1,2.8746141E1,1.1399896E2,1.6538443E1,2.8836504E1,5.548874E0,7.3343285E1,3.1066172E0,1.0099709E1,1.3459652E1,2.3679442E2,2.0742514E1,5.9343944E0,1.0189904E1,2.9447512E1,3.7952087E0,4.0235943E1,4.469609E0,3.524561E2,1.1679567E1,2.8328867E2,6.105415E1,7.886741E1,1.5204828E2,1.4645537E2,2.3320755E1,2.4395978E2,5.1847942E1,3.803373E1,1.3104208E2,5.2801764E2,3.5745706E2,3.759862E1,2.0645312E2,2.4340465E2,1.0243524E1,1.300113E0,2.0417125E0,1.5607756E1,3.523556E1,2.2012997E1,5.6260877E0,5.079294E1,1.5408825E0],"tree_param":{"num_deleted":"0","num_feature":"20000","num_nodes":"121","size_leaf_vector":"0"}},{"base_weights":[-2.4592E-1,-2.893946E-1,8.1156427E-1,-4.0629217E-1,-8.9416765E-2,1.0488888E0,-3.7579882E-1,-4.9865916E-1,-2.7760625E-1,-1.5335923E-1,7.636222E-1,-1.3179995E-1,1.1936167E0,-4.7782546E-1,7.8919524E-1,-5.263992E-1,-1.0703685E-1,-1.8546967E-1,-5.302208E-1,-4.0544625E-2,-4.1841087E-1,-2.863752E-1,1.0360751E0,-3.6394957E-1,9.1071695E-1,1.2425541E0,1.0679968E-1,-5.5679935E-1,7.171988E-1,1.0156666E0,8.2769245E-2,-5.5267125E-1,-2.1407783E-1,-3.5396245E-1,1.0813596E0,-2.2707629E-1,3.344037E-1,-5.431656E-1,6.9597036E-1,-9.889149E-2,6.1621624E-1,-5.174321E-1,-2.5949013E-1,-4.0111822E-1,1.27076E0,1.255892E0,2.711074E-1,-5.600045E-1,8.284665E-1,6.5542855E-3,1.2384256E0,-4.5100346E-1,1.2641268E0,8.5536045E-1,-5.6575954E-1,-5.9914917E-1,5.4245394E-1,9.710121E-1,1.1029119E-1,-5.5656874E-1,5.666142E-1,-3.4742272E-1,3.4419984E-1,-4.365912E-1,1.0178751E0,-5.4311675E-1,1.4566984E0,-1.24516726E-1,-3.6865503E-1,3.4007892E-2,9.1073596E-1,-5.545408E-1,8.612211E-1,1.5918057E0,-4.4055876E-1,1.1885079E-1,-2.5509033E-1,1.1905957E0,1.1749388E-2,-5.2970517E-1,7.9880756E-1,5.4035667E-2,-4.006333E-1,-5.71516E-1,6.1826885E-1,-5.1143074E-1,1.3170654E0,6.2689126E-1,-5.905388E-1,-6.0517544E-1,1.4853941E-1,9.049901E-2,1.120319E0,1.2787418E0,-1.4996144E-1,7.9672545E-2,1.0481732E0,-6.2118983E-1,1.5351425E-1],"categories":[],"categories_nodes":[],"categories_segments":[],"categories_sizes":[],"default_left":[1,1,1,1,1,1,1,1,1,1,1,1,1,1,1,1,1,1,1,1,1,1,1,1,1,1,1,1,1,0,0,1,1,1,1,1,1,1,1,1,1,1,1,1,0,1,1,1,1,0,0,0,1,1,0,1,0,0,0,0,0,0,0,0,0,0,0,0,0,0,0,0,0,0,0,0,0,0,0,0,0,0,0,0,0,0,0,0,0,0,0,0,0,0,0,0,0,0,0],"id":5,"left_children":[1,3,5,7,9,11,13,15,17,19,21,23,25,27,29,31,33,35,37,39,41,43,45,47,49,51,53,55,57,-1,-1,59,61,63,65,67,69,71,73,75,77,79,81,83,-1,85,87,89,91,-1,-1,-1,93,95,-1,97,-1,-1,-1,-1,-1,-1,-1,-1,-1,-1,-1,-1,-1,-1,-1,-1,-1,-1,-1,-1,-1,-1,-1,-1,-1,-1,-1,-1,-1,-1,-1,-1,-1,-1,-1,-1,-1,-1,-1,-1,-1,-1,-1],"loss_changes":[3.4396606E2,1.6786108E2,8.366382E1,5.373462E1,1.4470842E2,4.228595E1,6.3154798E0,2.8593628E1,4.4033432E1,7.374537E1,5.3224678E1,7.064797E0,1.1553253E1,4.79354E0,6.19905E-1,2.0087708E1,5.194238E1,3.016121E1,8.412933E0,6.640985E1,1.1453842E1,7.4600687E0,2.4397156E1,5.9504848E0,1.5778475E0,8.248169E0,5.8010287E0,2.3844042E0,4.0483153E-1,0E0,0E0,1.0221619E1,1.446524E1,1.7020073E1,1.9371971E1,1.8662308E1,1.7882908E1,8.488724E0,6.531666E0,5.41432E1,4.9082615E1,7.7359467E0,1.2619986E1,6.778675E0,0E0,1.2998596E1,1.0827904E1,7.540636E-1,6.9921017E-1,0E0,0E0,0E0,4.485901E0,7.2358084E-1,0E0,8.098831E-1,0E0,0E0,0E0,0E0,0E0,0E0,0E0,0E0,0E0,0E0,0E0,0E0,0E0,0E0,0E0,0E0,0E0,0E0,0E0,0E0,0E0,0E0,0E0,0E0,0E0,0E0,0E0,0E0,0E0,0E0,0E0,0E0,0E0,0E0,0E0,0E0,0E0,0E0,0E0,0E0,0E0,0E0,0E0],"parents":[2147483647,0,0,1,1,2,2,3,3,4,4,5,5,6,6,7,7,8,8,9,9,10,10,11,11,12,12,13,13,14,14,15,15,16,16,17,17,18,18,19,19,20,20,21,21,22,22,23,23,24,24,25,25,26,26,27,27,28,28,31,31,32,32,33,33,34,34,35,35,36,36,37,37,38,38,39,39,40,40,41,41,42,42,43,43,45,45,46,46,47,47,48,48,52,52,53,53,55,55],"right_children":[2,4,6,8,10,12,14,16,18,20,22,24,26,28,30,32,34,36,38,40,42,44,46,48,50,52,54,56,58,-1,-1,60,62,64,66,68,70,72,74,76,78,80,82,84,-1,86,88,90,92,-1,-1,-1,94,96,-1,98,-1,-1,-1,-1,-1,-1,-1,-1,-1,-1,-1,-1,-1,-1,-1,-1,-1,-1,-1,-1,-1,-1,-1,-1,-1,-1,-1,-1,-1,-1,-1,-1,-1,-1,-1,-1,-1,-1,-1,-1,-1,-1,-1],"split_conditions":[4.231053E-1,9.986638E-1,2.9302835E-1,8.3969444E-1,6.3533115E-1,3.439732E-2,3.6342013E-1,1.4067713E-4,1.8446865E0,1.6990992E-1,1.6390844E-1,7.89011E-1,8.2430765E-3,1.2946242E-1,1.7095366E-1,5.9114323E0,6.101209E-6,9.758508E-1,3.3295994E0,2.371991E-1,1.0140895E-6,4.4378725E-1,2.1468993E-2,2.1773353E-2,3.2305753E-1,1.1524748E-3,1.223377E-1,2.4323007E-2,4.2693073E-1,3.047E-1,2.4830775E-2,2.2945671E-1,1.17169455E-1,4.894825E-1,1.8132573E-1,9.024301E-1,4.353742E-1,1.5648067E0,2.618618E0,1.6877892E-3,8.226767E-6,2.5427747E-1,2.120071E-1,4.2966604E-1,3.8122803E-1,3.3023238E-1,1.6168777E-2,4.5527947E-1,4.3866724E-1,1.9662858E-3,3.715277E-1,-1.3530104E-1,2.2178641E-1,5.972544E-1,-1.6972786E-1,1.5344104E0,1.6273619E-1,2.9130363E-1,3.3087358E-2,-1.6697063E-1,1.6998427E-1,-1.0422682E-1,1.0325996E-1,-1.3097736E-1,3.0536252E-1,-1.6293503E-1,4.3700954E-1,-3.735502E-2,-1.10596515E-1,1.0202368E-2,2.732208E-1,-1.6636226E-1,2.5836635E-1,4.7754171E-1,-1.3216764E-1,3.5655238E-2,-7.6527104E-2,3.5717875E-1,3.5248164E-3,-1.5891156E-1,2.3964228E-1,1.6210701E-2,-1.20189995E-1,-1.714548E-1,1.8548065E-1,-1.5342923E-1,3.9511964E-1,1.8806739E-1,-1.7716165E-1,-1.8155263E-1,4.4561826E-2,2.7149705E-2,3.3609572E-1,3.8362256E-1,-4.4988435E-2,2.3901764E-2,3.1445196E-1,-1.8635696E-1,4.6054278E-2],"split_indices":[5320,6181,25,5407,301,3,7197,18805,57,5012,27,1026,15332,14731,47,17253,19706,74,289,3539,15362,6087,8821,16272,101,2894,3113,19869,11,0,0,17910,1351,3079,27,7421,301,6831,1596,10239,13138,16718,27,6242,0,5425,5903,2594,10,0,0,0,13246,90,0,336,0,0,0,0,0,0,0,0,0,0,0,0,0,0,0,0,0,0,0,0,0,0,0,0,0,0,0,0,0,0,0,0,0,0,0,0,0,0,0,0,0,0,0],"split_type":[0,0,0,0,0,0,0,0,0,0,0,0,0,0,0,0,0,0,0,0,0,0,0,0,0,0,0,0,0,0,0,0,0,0,0,0,0,0,0,0,0,0,0,0,0,0,0,0,0,0,0,0,0,0,0,0,0,0,0,0,0,0,0,0,0,0,0,0,0,0,0,0,0,0,0,0,0,0,0,0,0,0,0,0,0,0,0,0,0,0,0,0,0,0,0,0,0,0,0],"sum_hessian":[7.4756914E3,7.1811895E3,2.94502E2,4.531347E3,2.6498423E3,2.4554105E2,4.8960964E1,2.636249E3,1.895098E3,2.465828E3,1.840144E2,2.682144E1,2.187196E2,4.556074E1,3.4002237E0,2.461545E3,1.7470424E2,1.3898937E3,5.0520428E2,1.7304464E3,7.353815E2,3.790036E1,1.4611404E2,2.2468914E1,4.3525267E0,2.0915831E2,9.561297E0,4.323744E1,2.3233044E0,2.243297E0,1.1569269E0,2.2698394E3,1.9170537E2,1.4523035E2,2.9473883E1,1.2874218E3,1.0247201E2,5.004778E2,4.7264876E0,1.5900365E3,1.4040996E2,4.5168622E2,2.8369522E2,3.5990658E1,1.9096999E0,1.1300096E2,3.311308E1,1.975173E1,2.7171826E0,1.4292268E0,2.9232998E0,2.3803854E0,2.0677792E2,4.3963475E0,5.1649494E0,4.207154E1,1.1658971E0,1.215175E0,1.1081294E0,2.262464E3,7.3754144E0,1.5504942E2,3.6655937E1,1.3762279E2,7.6075716E0,5.447961E0,2.4025923E1,7.476813E2,5.397405E2,6.805789E1,3.4414116E1,4.9705692E2,3.4208865E0,2.4191108E0,2.307377E0,6.6427356E2,9.2576294E2,7.1499596E1,6.891036E1,4.481055E2,3.580719E0,8.825928E1,1.9543596E2,3.1212606E1,4.7780538E0,3.5342698E0,1.0946669E2,2.3628883E1,9.484196E0,1.8705133E1,1.0465972E0,1.1413335E0,1.5758493E0,2.047574E2,2.0205197E0,1.156589E0,3.2397585E0,4.1044296E1,1.0272446E0],"tree_param":{"num_deleted":"0","num_feature":"20000","num_nodes":"99","size_leaf_vector":"0"}},{"base_weights":[1.3006559E-1,4.8967436E-2,6.701463E-1,1.02763645E-1,-3.7946266E-1,1.0143352E0,3.9355206E-1,2.6740348E-1,8.7009715E-3,-2.1602488E-1,-4.8949414E-1,7.229295E-1,1.171054E0,8.802776E-1,-4.349882E-1,4.572804E-1,-5.2168597E-2,-3.426883E-2,4.5147055E-1,-3.5323796E-1,6.321891E-2,-4.9929088E-1,1.1270539E0,7.596919E-2,9.6664065E-1,1.1872832E0,-5.421429E-1,-2.364475E-1,1.2083948E0,-4.926575E-1,5.5833256E-1,1.9020408E-1,6.866702E-1,-1.9318154E-1,2.5242662E-1,6.207221E-2,-1.8298614E-1,-2.7728107E-2,9.2061067E-1,-4.0838927E-1,3.5875887E-1,3.789128E-1,-2.2220732E-1,-5.1100534E-1,7.666362E-1,3.7718412E-1,-6.39944E-1,1.0110084E0,-4.8712564E-1,1.2101727E0,-3.43492E-2,1.7693092E-1,-6.2099266E-1,3.923462E-1,1.2724593E0,-5.3785014E-1,4.199523E-1,1.0984735E0,-5.20608E-1,7.0620574E-2,6.5312785E-1,4.4676048E-1,9.179245E-1,1.7004302E-1,-3.359004E-1,4.679202E-1,-1.1768885E-1,-1.8317567E-2,3.0049807E-1,-3.4391135E-1,6.881152E-2,8.580087E-1,-2.6818433E-1,1.2658778E0,-1.1527236E-1,-4.7260103E-1,1.173708E-1,1.312357E0,-2.2959271E-1,6.95752E-1,-3.1569245E-1,-3.809289E-1,7.6864946E-1,-5.208639E-1,1.0515648E0,1.5880431E0,-4.0922868E-1,-5.020249E-1,6.735603E-1,1.0582753E0,-2.2381085E-1,1.2228087E0,-5.2315396E-1,-5.6989515E-1,8.41716E-1,8.7797177E-1,-4.6199632E-1,8.7875533E-1,-4.9115792E-1,1.2932215E0,1.03643246E-1,-5.7765305E-1,1.3548401E-1,1.1347983E0,-3.7089905E-1,1.4621289E0,-3.9733016E-1],"categories":[],"categories_nodes":[],"categories_segments":[],"categories_sizes":[],"default_left":[1,1,1,1,1,1,1,1,1,1,1,1,1,1,1,1,1,1,1,1,1,1,0,1,1,1,0,1,1,1,1,1,1,1,1,1,1,1,1,1,1,1,1,1,1,1,0,1,0,1,1,1,0,1,1,1,1,1,0,0,0,0,0,0,0,0,0,0,0,0,0,0,0,0,0,0,0,0,0,0,0,0,0,0,0,0,0,0,0,0,0,0,0,0,0,0,0,0,0,0,0,0,0,0,0,0,0],"id":6,"left_children":[1,3,5,7,9,11,13,15,17,19,21,23,25,27,29,31,33,35,37,39,41,43,-1,45,47,49,-1,51,53,55,57,59,61,63,65,67,69,71,73,75,77,79,81,83,85,87,-1,89,-1,91,93,95,-1,97,99,101,103,105,-1,-1,-1,-1,-1,-1,-1,-1,-1,-1,-1,-1,-1,-1,-1,-1,-1,-1,-1,-1,-1,-1,-1,-1,-1,-1,-1,-1,-1,-1,-1,-1,-1,-1,-1,-1,-1,-1,-1,-1,-1,-1,-1,-1,-1,-1,-1,-1,-1],"loss_changes":[3.584488E2,1.6407408E2,1.0131918E2,9.793323E1,1.4176346E1,2.086557E1,2.399408E2,1.3954488E2,7.660601E1,1.2334536E1,8.067093E0,2.6554192E1,9.194611E0,1.3752292E2,1.2906067E1,8.823984E1,3.6896156E1,5.2599922E1,8.010075E1,8.613131E0,9.700493E0,7.386757E0,0E0,1.0440343E1,8.399277E0,8.5694275E0,0E0,1.3763553E1,1.4643341E1,8.842804E0,7.8961134E0,3.6925034E1,4.2619415E1,3.0484913E1,2.1741846E1,4.2713596E1,5.850433E1,3.7965233E1,6.452855E1,6.8270645E0,9.296691E0,1.14531145E1,9.206472E0,7.7566223E0,5.2133837E0,9.176489E0,0E0,7.198761E0,0E0,7.197113E0,3.567579E0,1.9295307E1,0E0,1.0113527E1,6.3724365E0,5.42527E0,6.311485E0,5.311514E0,0E0,0E0,0E0,0E0,0E0,0E0,0E0,0E0,0E0,0E0,0E0,0E0,0E0,0E0,0E0,0E0,0E0,0E0,0E0,0E0,0E0,0E0,0E0,0E0,0E0,0E0,0E0,0E0,0E0,0E0,0E0,0E0,0E0,0E0,0E0,0E0,0E0,0E0,0E0,0E0,0E0,0E0,0E0,0E0,0E0,0E0,0E0,0E0,0E0],"parents":[2147483647,0,0,1,1,2,2,3,3,4,4,5,5,6,6,7,7,8,8,9,9,10,10,11,11,12,12,13,13,14,14,15,15,16,16,17,17,18,18,19,19,20,20,21,21,23,23,24,24,25,25,27,27,28,28,29,29,30,30,31,31,32,32,33,33,34,34,35,35,36,36,37,37,38,38,39,39,40,40,41,41,42,42,43,43,44,44,45,45,47,47,49,49,50,50,51,51,53,53,54,54,55,55,56,56,57,57],"right_children":[2,4,6,8,10,12,14,16,18,20,22,24,26,28,30,32,34,36,38,40,42,44,-1,46,48,50,-1,52,54,56,58,60,62,64,66,68,70,72,74,76,78,80,82,84,86,88,-1,90,-1,92,94,96,-1,98,100,102,104,106,-1,-1,-1,-1,-1,-1,-1,-1,-1,-1,-1,-1,-1,-1,-1,-1,-1,-1,-1,-1,-1,-1,-1,-1,-1,-1,-1,-1,-1,-1,-1,-1,-1,-1,-1,-1,-1,-1,-1,-1,-1,-1,-1,-1,-1,-1,-1,-1,-1],"split_conditions":[2.7200085E-1,4.7643475E-2,1.1812672E-1,1.3682032E0,1.844185E-1,3.099606E-1,7.035781E-1,3.1581813E-1,1.1620703E-7,6.0862534E-2,1.1940237E0,5.0022364E-1,1.1072266E0,2.8411978E-1,1.2306115E-4,2.1880988E-3,3.130898E-1,7.4355433E-10,3.9251518E-1,1.1293705E-1,1.6752432E-5,7.2434604E-1,3.3811617E-1,2.5233686E-1,6.1659683E-2,1.4881769E-1,-1.6264288E-1,6.289816E-2,6.3418476E-5,3.7048444E-1,2.9082847E-1,2.5086532E0,7.5712866E-1,1.9329036E-9,5.163814E-1,9.1377884E-1,4.1153416E-2,7.00734E-1,2.6109132E-1,7.236792E-3,6.541066E-4,1.6364117E0,1.8905261E-1,8.2016027E-1,7.478122E-5,1.7351556E-1,-1.9198321E-1,4.1649543E-2,-1.461377E-1,8.594569E-1,6.373352E-1,2.3406707E-3,-1.862978E-1,1.7500545E0,1.9236627E-3,9.2021877E-1,1.8698561E-1,3.5478547E-1,-1.5618241E-1,2.1186173E-2,1.9593836E-1,1.3402815E-1,2.7537736E-1,5.1012907E-2,-1.0077012E-1,1.4037608E-1,-3.5306655E-2,-5.4952702E-3,9.0149425E-2,-1.0317341E-1,2.0643458E-2,2.5740263E-1,-8.04553E-2,3.7976336E-1,-3.458171E-2,-1.4178032E-1,3.5211243E-2,3.937071E-1,-6.8877816E-2,2.0872562E-1,-9.470774E-2,-1.14278674E-1,2.3059484E-1,-1.5625918E-1,3.1546944E-1,4.7641295E-1,-1.2276861E-1,-1.5060747E-1,2.020681E-1,3.1748262E-1,-6.714326E-2,3.6684263E-1,-1.569462E-1,-1.7096855E-1,2.525148E-1,2.6339155E-1,-1.385989E-1,2.636266E-1,-1.4734738E-1,3.8796645E-1,3.1092975E-2,-1.7329592E-1,4.0645204E-2,3.404395E-1,-1.1126972E-1,4.386387E-1,-1.1919905E-1],"split_indices":[492,5876,27,10940,5876,472,0,6,19706,10358,12149,492,410,25,19963,4215,483,12952,472,15075,8906,5195,0,5359,17910,15299,0,17910,3926,6327,8714,0,12,8475,1972,4402,132,57,1480,18009,5507,9032,10105,4400,285,2195,0,16588,0,6231,492,12998,0,4260,19706,17,562,1739,0,0,0,0,0,0,0,0,0,0,0,0,0,0,0,0,0,0,0,0,0,0,0,0,0,0,0,0,0,0,0,0,0,0,0,0,0,0,0,0,0,0,0,0,0,0,0,0,0],"split_type":[0,0,0,0,0,0,0,0,0,0,0,0,0,0,0,0,0,0,0,0,0,0,0,0,0,0,0,0,0,0,0,0,0,0,0,0,0,0,0,0,0,0,0,0,0,0,0,0,0,0,0,0,0,0,0,0,0,0,0,0,0,0,0,0,0,0,0,0,0,0,0,0,0,0,0,0,0,0,0,0,0,0,0,0,0,0,0,0,0,0,0,0,0,0,0,0,0,0,0,0,0,0,0,0,0,0,0],"sum_hessian":[8.183596E3,7.116133E3,1.0674631E3,6.322947E3,7.9318634E2,4.7442722E2,5.9303595E2,2.2983154E3,4.0246313E3,3.2033405E2,4.7285233E2,1.678805E2,3.0654672E2,3.7353854E2,2.1949745E2,1.4414391E3,8.568762E2,3.6694426E3,3.5518863E2,2.1461357E2,1.05720474E2,4.7069092E2,2.161387E0,4.6295437E1,1.2158505E2,3.0397415E2,2.5725682E0,8.489236E1,2.8864618E2,2.0792969E2,1.15677595E1,6.668552E2,7.745839E2,5.859673E2,2.7090894E2,2.2272095E3,1.4422332E3,1.761761E2,1.7901251E2,1.9958047E2,1.5033095E1,5.004309E1,5.567738E1,4.6696613E2,3.7247994E0,3.291841E1,1.3377026E1,1.1827981E2,3.3052444E0,2.983926E2,5.5815554E0,4.1172565E1,4.371979E1,2.1529478E1,2.671167E2,1.9851007E2,9.419607E0,7.6965814E0,3.8711786E0,5.3087177E2,1.3598344E2,3.8161636E2,3.9296753E2,1.6523836E2,4.2072894E2,1.710523E2,9.985662E1,1.6663062E3,5.609034E2,8.796673E2,5.625659E2,3.7067436E1,1.3910867E2,1.340955E2,4.491702E1,1.779485E2,2.1631971E1,5.2665405E0,9.766555E0,3.436575E1,1.5677342E1,4.8520603E1,7.1567764E0,4.647009E2,2.2652342E0,1.9865513E0,1.7382482E0,8.12411E0,2.4794302E1,1.14056854E2,4.222949E0,2.9652545E2,1.8671608E0,3.680884E0,1.9006716E0,1.9453619E1,2.1718946E1,1.3888567E1,7.6409116E0,2.6235E2,4.7666864E0,1.8756462E2,1.0945451E1,4.719117E0,4.70049E0,6.209467E0,1.4871142E0],"tree_param":{"num_deleted":"0","num_feature":"20000","num_nodes":"107","size_leaf_vector":"0"}},{"base_weights":[1.9852E-1,3.983074E-1,-3.859786E-2,4.8453686E-1,-1.6006781E-1,-1.13226674E-1,3.1252456E-1,3.3822057E-1,8.357587E-1,1.7698906E-1,-4.634987E-1,8.4117085E-2,-2.7084672E-1,-2.9901212E-1,5.56726E-1,5.207404E-1,1.1796576E-1,9.710796E-1,5.1568866E-1,-2.577979E-1,4.8951152E-1,-5.239257E-1,5.092417E-1,4.5599562E-1,-6.592117E-2,-3.0451405E-1,4.3193614E-1,-3.8729814E-1,6.2748504E-1,-3.1566542E-1,7.682745E-1,6.459845E-1,7.16804E-2,4.7754575E-2,4.961659E-1,8.364215E-1,1.2028507E0,2.3532937E-1,8.481908E-1,6.8688506E-1,-3.3352512E-1,7.9297054E-1,-1.4853719E-1,9.599468E-1,-5.3863955E-1,9.793231E-1,-4.0513647E-1,2.2881703E-1,8.7668556E-1,3.941843E-1,-1.449999E-1,5.221796E-1,-3.3264133E-1,1.461427E-3,1.475056E0,-4.47721E-1,6.6999245E-1,-2.6918662E-1,1.1370523E0,-4.036791E-1,8.275299E-1,9.208391E-1,-3.4922352E-1,4.0649736E-1,8.757412E-1,3.118302E-1,-2.5505757E-1,-9.357675E-3,6.092726E-1,7.7129626E-1,-2.7319428E-1,6.112466E-1,1.1628677E0,1.290968E0,5.682073E-1,4.3005487E-1,-3.1691116E-1,3.0721423E-1,1.0610964E0,-2.7274993E-1,1.3335567E0,-3.8666677E-1,9.8538697E-1,9.176301E-1,-5.2971536E-1,-3.0301648E-1,1.4776456E0,-5.6052494E-1,4.506108E-1,1.1744899E0,-3.7637308E-1,-5.284114E-1,1.7919749E-1,4.9446203E-2,8.909135E-1,1.1770048E0,2.143427E-1,2.8740538E-2,7.809197E-1,-2.022623E-1,7.174692E-1,1.2927967E-1,1.2368288E0,-3.6037666E-1,3.2270995E-1,-2.9945764E-1,6.525122E-1,1.6978264E0,-4.590799E-1,-4.7562665E-1,1.1831506E0,-4.8763195E-1,1.2041993E0,-5.413939E-1,6.6833293E-1,1.3907495E0,-8.751833E-2,-4.7876897E-1,6.709398E-1,1.4404795E0,-4.34489E-1,8.382231E-2,1.0586195E0,-6.1547416E-1,3.028675E-1],"categories":[],"categories_nodes":[],"categories_segments":[],"categories_sizes":[],"default_left":[1,1,1,1,1,1,1,1,1,1,1,1,1,1,1,1,1,1,1,1,1,1,1,1,1,1,1,1,1,1,1,1,1,1,1,1,1,1,1,1,1,1,1,0,1,1,1,1,1,1,1,1,1,1,1,1,1,1,1,1,1,1,1,0,0,0,0,0,0,0,0,0,0,0,0,0,0,0,0,0,0,0,0,0,0,0,0,0,0,0,0,0,0,0,0,0,0,0,0,0,0,0,0,0,0,0,0,0,0,0,0,0,0,0,0,0,0,0,0,0,0,0,0,0,0],"id":7,"left_children":[1,3,5,7,9,11,13,15,17,19,21,23,25,27,29,31,33,35,37,39,41,43,45,47,49,51,53,55,57,59,61,63,65,67,69,71,73,75,77,79,81,83,85,-1,87,89,91,93,95,97,99,101,103,105,107,109,111,113,115,117,119,121,123,-1,-1,-1,-1,-1,-1,-1,-1,-1,-1,-1,-1,-1,-1,-1,-1,-1,-1,-1,-1,-1,-1,-1,-1,-1,-1,-1,-1,-1,-1,-1,-1,-1,-1,-1,-1,-1,-1,-1,-1,-1,-1,-1,-1,-1,-1,-1,-1,-1,-1,-1,-1,-1,-1,-1,-1,-1,-1,-1,-1,-1,-1],"loss_changes":[3.948064E2,2.1784955E2,9.9916794E1,2.0106873E2,6.2038208E1,9.782722E1,9.998556E1,1.1119748E2,4.937628E1,3.9221268E1,1.9021866E1,7.797563E1,4.1498276E1,1.5898457E1,8.846182E1,8.5055756E1,3.331302E1,2.4219055E1,3.189843E1,8.883579E0,3.2595715E1,7.086853E0,8.636122E0,3.8192665E1,3.6305344E1,3.8982025E1,3.6073128E1,1.1502838E1,8.088677E0,9.792172E0,6.596295E1,6.473874E1,2.6060392E1,3.399846E1,4.179769E1,3.7109375E1,1.5749054E1,2.0373838E1,1.7771889E1,6.1380377E0,8.278115E0,1.925541E1,1.424091E1,0E0,6.717102E0,3.869193E0,6.144829E-1,3.1096119E1,2.7697739E1,2.0665854E1,4.2167023E1,1.536921E1,2.9465271E1,1.1533134E1,1.0891121E1,8.13937E0,6.6974072E0,2.1432943E0,3.5553293E0,7.4184732E0,6.0775824E0,3.9010864E1,8.342085E0,0E0,0E0,0E0,0E0,0E0,0E0,0E0,0E0,0E0,0E0,0E0,0E0,0E0,0E0,0E0,0E0,0E0,0E0,0E0,0E0,0E0,0E0,0E0,0E0,0E0,0E0,0E0,0E0,0E0,0E0,0E0,0E0,0E0,0E0,0E0,0E0,0E0,0E0,0E0,0E0,0E0,0E0,0E0,0E0,0E0,0E0,0E0,0E0,0E0,0E0,0E0,0E0,0E0,0E0,0E0,0E0,0E0,0E0,0E0,0E0,0E0,0E0],"parents":[2147483647,0,0,1,1,2,2,3,3,4,4,5,5,6,6,7,7,8,8,9,9,10,10,11,11,12,12,13,13,14,14,15,15,16,16,17,17,18,18,19,19,20,20,21,21,22,22,23,23,24,24,25,25,26,26,27,27,28,28,29,29,30,30,31,31,32,32,33,33,34,34,35,35,36,36,37,37,38,38,39,39,40,40,41,41,42,42,44,44,45,45,46,46,47,47,48,48,49,49,50,50,51,51,52,52,53,53,54,54,55,55,56,56,57,57,58,58,59,59,60,60,61,61,62,62],"right_children":[2,4,6,8,10,12,14,16,18,20,22,24,26,28,30,32,34,36,38,40,42,44,46,48,50,52,54,56,58,60,62,64,66,68,70,72,74,76,78,80,82,84,86,-1,88,90,92,94,96,98,100,102,104,106,108,110,112,114,116,118,120,122,124,-1,-1,-1,-1,-1,-1,-1,-1,-1,-1,-1,-1,-1,-1,-1,-1,-1,-1,-1,-1,-1,-1,-1,-1,-1,-1,-1,-1,-1,-1,-1,-1,-1,-1,-1,-1,-1,-1,-1,-1,-1,-1,-1,-1,-1,-1,-1,-1,-1,-1,-1,-1,-1,-1,-1,-1,-1,-1,-1,-1,-1,-1],"split_conditions":[4.445365E-1,1.9379814E-1,2.4126656E-2,1.3056974E-6,9.041248E-2,7.019198E-1,1.8059193E0,2.742005E-1,1.6988397E-5,5.67379E-2,1.4678319E0,2.0459676E-1,2.8071094E-1,1.3705108E0,1.7292571E-1,8.6333394E-2,1.0179865E-1,9.0252456E-7,1.5576766E0,7.34931E-2,8.2746506E-2,4.3053093E0,5.0159907E0,5.5965114E-1,4.9788976E0,2.0580899E-2,3.5057646E-1,2.2163616E-1,8.4373415E-1,5.2430725E-1,2.9847777E-1,1.3977045E-1,1.2741407E0,1.1191487E0,7.758662E-3,3.6867267E-1,1.9521317E0,1.777424E-2,4.4758683E-1,4.8082018E-1,9.3063796E-1,7.8802717E-1,4.438019E-1,2.8798404E-1,1.276383E-1,3.0306259E-5,9.3061316E-1,5.97956E-1,1.176254E0,4.4825006E-1,1.845862E-1,3.447567E0,1.3948128E-1,2.6072264E-1,1.7229152E-1,8.63616E-1,4.0861905E-2,6.4013433E-1,8.5800743E-1,3.3042353E-1,1.9823967E0,2.4513818E-5,1.1874622E-1,1.2194921E-1,2.6272237E-1,9.354906E-2,-7.651728E-2,-2.8073026E-3,1.8278179E-1,2.3138888E-1,-8.195829E-2,1.8337399E-1,3.4886032E-1,3.872904E-1,1.704622E-1,1.2901647E-1,-9.507335E-2,9.216427E-2,3.1832895E-1,-8.182498E-2,4.00067E-1,-1.16000034E-1,2.956161E-1,2.7528903E-1,-1.5891461E-1,-9.090495E-2,4.4329372E-1,-1.6815749E-1,1.3518324E-1,3.5234696E-1,-1.1291193E-1,-1.5852343E-1,5.375925E-2,1.4833861E-2,2.6727405E-1,3.5310146E-1,6.430281E-2,8.622162E-3,2.342759E-1,-6.067869E-2,2.1524078E-1,3.8783904E-2,3.7104866E-1,-1.08113E-1,9.6812986E-2,-8.98373E-2,1.9575366E-1,5.093479E-1,-1.3772397E-1,-1.42688E-1,3.549452E-1,-1.4628959E-1,3.6125982E-1,-1.6241817E-1,2.0049989E-1,4.1722485E-1,-2.62555E-2,-1.436307E-1,2.0128195E-1,4.3214387E-1,-1.3034672E-1,2.5146695E-2,3.1758586E-1,-1.8464226E-1,9.0860255E-2],"split_indices":[2015,492,5763,15404,3926,48,0,561,13614,27,17,561,8887,7305,27,1351,5763,16395,10940,3097,1069,17253,17253,25,17253,96,5647,12812,11234,5618,3410,25,11273,17,1069,25,9921,9128,2491,4322,4704,780,9314,0,15819,13193,252,171,34,40,12812,14235,12812,1119,6970,1233,8885,74,587,7216,9215,6364,8844,0,0,0,0,0,0,0,0,0,0,0,0,0,0,0,0,0,0,0,0,0,0,0,0,0,0,0,0,0,0,0,0,0,0,0,0,0,0,0,0,0,0,0,0,0,0,0,0,0,0,0,0,0,0,0,0,0,0,0,0,0,0],"split_type":[0,0,0,0,0,0,0,0,0,0,0,0,0,0,0,0,0,0,0,0,0,0,0,0,0,0,0,0,0,0,0,0,0,0,0,0,0,0,0,0,0,0,0,0,0,0,0,0,0,0,0,0,0,0,0,0,0,0,0,0,0,0,0,0,0,0,0,0,0,0,0,0,0,0,0,0,0,0,0,0,0,0,0,0,0,0,0,0,0,0,0,0,0,0,0,0,0,0,0,0,0,0,0,0,0,0,0,0,0,0,0,0,0,0,0,0,0,0,0,0,0,0,0,0,0],"sum_hessian":[8.332642E3,4.5219346E3,3.8107075E3,3.917145E3,6.0478937E2,3.1432974E3,6.674101E2,2.7665745E3,1.1505707E3,2.8671622E2,3.1807318E2,1.3959739E3,1.7473235E3,1.9039432E2,4.770158E2,1.512138E3,1.2544365E3,8.0724524E2,3.433254E2,1.1997705E2,1.6673915E2,2.999044E2,1.816879E1,4.00722E2,9.952519E2,1.6679841E3,7.9339264E1,1.7436137E2,1.6032942E1,9.300134E1,3.8401447E2,1.1820284E3,3.301095E2,1.0589697E3,1.9546678E2,5.13508E2,2.9373724E2,1.8719444E2,1.5613097E2,8.30487E0,1.1167218E2,1.1283262E2,5.390654E1,2.313853E0,2.975905E2,1.1952824E1,6.215967E0,2.612092E2,1.395128E2,1.4538289E2,8.49869E2,5.430592E1,1.6136782E3,5.68711E1,2.2468163E1,1.654809E2,8.880487E0,5.9806643E0,1.0052278E1,8.6953735E1,6.047612E0,3.3804007E2,4.5974392E1,5.801147E2,6.0191376E2,1.9029202E2,1.3981749E2,9.6209766E2,9.687205E1,1.439768E2,5.1489967E1,3.0559094E2,2.0791705E2,2.5701743E2,3.6719822E1,1.3855856E2,4.8635876E1,4.4783237E1,1.11347725E2,3.5761821E0,4.728688E0,1.08026405E2,3.6457748E0,1.0339423E2,9.438385E0,4.9973015E1,3.9335248E0,2.9157336E2,6.0171456E0,1.05654745E1,1.3873489E0,5.2120934E0,1.0038741E0,2.063743E2,5.4834892E1,9.545472E1,4.4058083E1,7.530145E1,7.0081436E1,7.976741E2,5.2194935E1,3.580303E1,1.8502892E1,1.5485901E3,6.508823E1,3.9263393E1,1.7607708E1,2.0257158E1,2.2110047E0,1.6339345E2,2.0874448E0,2.8316016E0,6.048886E0,4.962373E0,1.0182917E0,8.214712E0,1.8375645E0,8.179287E1,5.160866E0,3.9753947E0,2.0722175E0,4.80068E1,2.9003326E2,3.2685116E1,1.3289274E1],"tree_param":{"num_deleted":"0","num_feature":"20000","num_nodes":"125","size_leaf_vector":"0"}},{"base_weights":[-9.276288E-2,-1.9587822E-1,6.398848E-2,-1.6051681E-1,-5.460904E-1,1.5498838E-1,-1.7689928E-1,-1.9532408E-1,2.4304014E-1,-5.5763817E-1,9.5322067E-1,2.9376188E-1,-3.890723E-2,-2.6630378E-1,3.232803E-1,-1.040033E-1,-3.3626577E-1,-9.022822E-2,4.5663115E-1,-5.767027E-1,1.4033672E-1,1.6931325E-1,1.2001075E0,1.2527595E-1,5.337329E-1,1.2489733E-1,-2.632386E-1,-3.523847E-1,3.8441714E-2,6.1486346E-1,-2.7918866E-1,3.66883E-2,-2.2469796E-1,-2.3906444E-1,-4.790603E-1,1.937805E-1,-3.6628076E-1,7.41527E-1,1.15911454E-1,-5.815475E-1,6.6197515E-1,-4.394801E-1,9.702337E-1,-5.524558E-2,3.3223662E-1,6.6043675E-1,-1.6756842E-1,-7.8803904E-2,5.068887E-1,-4.176577E-1,5.47964E-1,-4.025302E-1,6.35434E-2,3.084672E-1,-3.36496E-1,9.6930556E-2,8.836092E-1,-5.496396E-1,3.9678362E-1,-3.48847E-2,6.625633E-1,4.2862598E-2,-3.1300366E-1,-2.604364E-1,8.0733114E-1,-4.9508914E-1,5.2282953E-1,-1.3682933E-1,6.760991E-1,-4.9461427E-1,4.8022836E-1,8.955988E-1,-3.9900848E-1,-1.2105547E-1,8.6319065E-1,-5.864659E-1,5.2400327E-1,-5.410133E-1,1.118289E-1,6.574865E-2,1.2136017E0,-1.440902E-1,5.7543653E-1,5.893686E-1,4.743978E-2,5.227929E-1,1.1657082E0,5.6945544E-1,-3.4412596E-1,-2.2271991E-1,1.1499989E0,8.171013E-1,-8.958346E-2,-1.414527E-1,-5.21748E-1,1.023523E0,-1.5414073E-1,1.5586531E-1,-4.310062E-1,-2.3241584E-1,6.351243E-1,5.207124E-1,-3.9814162E-1,-4.6645597E-1,5.55088E-1,6.5277874E-1,-4.8624143E-1,9.9441165E-1,-5.277119E-1,-6.4347595E-1,5.868771E-1,-3.203792E-1,1.2115635E0],"categories":[],"categories_nodes":[],"categories_segments":[],"categories_sizes":[],"default_left":[1,1,1,1,1,1,1,1,1,1,1,1,1,1,1,1,1,1,1,1,1,0,0,1,1,1,1,1,1,1,1,1,1,1,1,1,1,1,1,1,0,1,1,1,1,1,1,1,1,1,1,1,1,1,1,1,1,1,1,0,0,0,0,0,0,0,0,0,0,0,0,0,0,0,0,0,0,0,0,0,0,0,0,0,0,0,0,0,0,0,0,0,0,0,0,0,0,0,0,0,0,0,0,0,0,0,0,0,0,0,0,0,0],"id":8,"left_children":[1,3,5,7,9,11,13,15,17,19,21,23,25,27,29,31,33,35,37,39,41,-1,-1,43,45,47,49,51,53,55,57,59,61,63,65,67,69,71,73,75,-1,77,79,81,83,85,87,89,91,93,95,97,99,101,103,105,107,109,111,-1,-1,-1,-1,-1,-1,-1,-1,-1,-1,-1,-1,-1,-1,-1,-1,-1,-1,-1,-1,-1,-1,-1,-1,-1,-1,-1,-1,-1,-1,-1,-1,-1,-1,-1,-1,-1,-1,-1,-1,-1,-1,-1,-1,-1,-1,-1,-1,-1,-1,-1,-1,-1,-1],"loss_changes":[1.1982402E2,5.5286774E1,6.451906E1,5.7116264E1,7.6243362E0,5.748317E1,3.6180023E1,4.81118E1,2.3036291E1,5.498932E0,4.7422528E-1,5.0271446E1,3.2806175E1,1.7990688E1,2.1752054E1,3.8578423E1,2.0293457E1,1.0028554E1,1.9040031E1,2.764618E0,6.0226026E0,0E0,0E0,2.7395023E1,4.5717346E1,4.0203163E1,4.7418606E1,1.1172646E1,1.5476501E1,1.1480383E1,7.668337E0,4.704427E1,2.8903E1,1.9819187E1,9.806137E0,1.0179224E1,7.2718887E0,1.918134E1,1.6203127E1,2.457962E0,0E0,4.8227E-1,1.0417705E0,2.2061106E1,2.4982037E1,2.9638077E1,1.0519936E1,5.9941986E1,3.331467E1,9.04126E0,2.0417074E1,7.6532745E0,1.0021129E1,1.3523719E1,7.6802773E0,9.883166E0,9.060509E0,3.5265112E0,7.532299E0,0E0,0E0,0E0,0E0,0E0,0E0,0E0,0E0,0E0,0E0,0E0,0E0,0E0,0E0,0E0,0E0,0E0,0E0,0E0,0E0,0E0,0E0,0E0,0E0,0E0,0E0,0E0,0E0,0E0,0E0,0E0,0E0,0E0,0E0,0E0,0E0,0E0,0E0,0E0,0E0,0E0,0E0,0E0,0E0,0E0,0E0,0E0,0E0,0E0,0E0,0E0,0E0,0E0,0E0],"parents":[2147483647,0,0,1,1,2,2,3,3,4,4,5,5,6,6,7,7,8,8,9,9,10,10,11,11,12,12,13,13,14,14,15,15,16,16,17,17,18,18,19,19,20,20,23,23,24,24,25,25,26,26,27,27,28,28,29,29,30,30,31,31,32,32,33,33,34,34,35,35,36,36,37,37,38,38,39,39,41,41,42,42,43,43,44,44,45,45,46,46,47,47,48,48,49,49,50,50,51,51,52,52,53,53,54,54,55,55,56,56,57,57,58,58],"right_children":[2,4,6,8,10,12,14,16,18,20,22,24,26,28,30,32,34,36,38,40,42,-1,-1,44,46,48,50,52,54,56,58,60,62,64,66,68,70,72,74,76,-1,78,80,82,84,86,88,90,92,94,96,98,100,102,104,106,108,110,112,-1,-1,-1,-1,-1,-1,-1,-1,-1,-1,-1,-1,-1,-1,-1,-1,-1,-1,-1,-1,-1,-1,-1,-1,-1,-1,-1,-1,-1,-1,-1,-1,-1,-1,-1,-1,-1,-1,-1,-1,-1,-1,-1,-1,-1,-1,-1,-1,-1,-1,-1,-1,-1,-1],"split_conditions":[2.014184E-2,3.0808145E-1,3.384112E-2,1.6497093E-1,3.7554362E-1,4.302688E-2,8.381855E-2,2.6008686E-1,1.4278622E-2,9.2069554E-1,3.0346608E-1,1.0943726E-8,5.00443E-1,4.7455937E-2,4.3004718E-2,1.2332484E-1,7.4592136E-2,1.2813009E-2,7.988523E-2,3.681758E-1,2.2523078E-1,5.079398E-2,3.6003226E-1,3.112651E-1,2.869646E-1,7.163643E-1,5.477055E-3,1.6000838E0,4.2503178E-2,4.5298385E-3,4.806431E-1,4.1802484E-4,8.8660216E-1,1.2369502E0,1.2697983E0,7.3922E-5,5.708693E-1,7.125233E-2,3.5240197E-1,1.7496676E0,1.9859256E-1,2.5014156E-1,1.9999422E-1,1.1567998E0,4.1926198E-2,3.481577E-7,3.7556177E-1,2.245857E-6,7.042546E-3,2.5787532E-1,1.1311683E-6,8.005583E-1,7.2551095E-1,1.9133538E-1,8.935816E-1,2.38409E-1,7.9196846E-1,1.0423553E0,1.1382792E-1,-1.046541E-2,1.98769E-1,1.285878E-2,-9.3901105E-2,-7.8130916E-2,2.4219935E-1,-1.4852674E-1,1.5684886E-1,-4.1048802E-2,2.0282975E-1,-1.4838429E-1,1.4406851E-1,2.6867965E-1,-1.1970255E-1,-3.631664E-2,2.589572E-1,-1.7593977E-1,1.5720099E-1,-1.62304E-1,3.354867E-2,1.9724594E-2,3.6408052E-1,-4.322706E-2,1.7263097E-1,1.7681058E-1,1.4231934E-2,1.5683787E-1,3.4971246E-1,1.7083664E-1,-1.0323779E-1,-6.681597E-2,3.4499967E-1,2.451304E-1,-2.6875038E-2,-4.243581E-2,-1.565244E-1,3.070569E-1,-4.624222E-2,4.6759594E-2,-1.2930186E-1,-6.972475E-2,1.905373E-1,1.5621372E-1,-1.1944249E-1,-1.3993679E-1,1.665264E-1,1.9583364E-1,-1.4587243E-1,2.983235E-1,-1.5831359E-1,-1.930428E-1,1.7606314E-1,-9.6113764E-2,3.6346906E-1],"split_indices":[8475,492,3926,5876,18645,5592,5876,17,6924,1646,5,15094,25,12581,9834,25,7826,3674,27,15368,2536,0,0,6,5647,27,17058,8970,9899,8960,3128,15684,57,15491,141,12384,3792,5763,626,1619,0,3959,51,551,2,19706,1573,19706,5763,27,16339,909,27,2396,4535,170,1471,1082,4150,0,0,0,0,0,0,0,0,0,0,0,0,0,0,0,0,0,0,0,0,0,0,0,0,0,0,0,0,0,0,0,0,0,0,0,0,0,0,0,0,0,0,0,0,0,0,0,0,0,0,0,0,0,0],"split_type":[0,0,0,0,0,0,0,0,0,0,0,0,0,0,0,0,0,0,0,0,0,0,0,0,0,0,0,0,0,0,0,0,0,0,0,0,0,0,0,0,0,0,0,0,0,0,0,0,0,0,0,0,0,0,0,0,0,0,0,0,0,0,0,0,0,0,0,0,0,0,0,0,0,0,0,0,0,0,0,0,0,0,0,0,0,0,0,0,0,0,0,0,0,0,0,0,0,0,0,0,0,0,0,0,0,0,0,0,0,0,0,0,0],"sum_hessian":[7.411486E3,4.470451E3,2.941035E3,4.0617856E3,4.0866568E2,2.1348948E3,8.0614014E2,3.7397441E3,3.2204135E2,4.0616547E2,2.5002174E0,1.2440194E3,8.9087524E2,6.8429376E2,1.21846344E2,2.2704092E3,1.4693351E3,1.2600772E2,1.9603365E2,3.955355E2,1.062997E1,1.0025965E0,1.4976208E0,7.317635E2,5.122559E2,5.151564E2,3.7571884E2,5.3345374E2,1.5084006E2,8.2093925E1,3.9752422E1,1.048679E3,1.2217301E3,8.758271E2,5.93508E2,6.2255733E1,6.3751984E1,1.0612223E2,8.9911415E1,3.9452292E2,1.0125569E0,6.534799E0,4.0951705E0,3.9123856E2,3.4052496E2,4.3391837E2,7.8337585E1,3.3650497E2,1.7865141E2,3.1604266E2,5.967618E1,4.7608743E2,5.736631E1,8.77912E1,6.304885E1,2.8509823E1,5.3584103E1,2.852621E1,1.1226211E1,9.4190955E2,1.067694E2,3.0329135E2,9.184388E2,8.59033E2,1.6794079E1,5.846601E2,8.847909E0,3.7361946E1,2.4893787E1,5.572031E1,8.031676E0,9.368177E1,1.2440461E1,6.8900604E1,2.1010809E1,3.93243E2,1.2799369E0,5.5342464E0,1.000553E0,1.1375587E0,2.957612E0,3.4360605E2,4.7632484E1,1.7839218E2,1.6213277E2,3.426184E2,9.129995E1,1.4709354E1,6.3628235E1,3.0195868E2,3.454631E1,1.1728438E2,6.1367035E1,8.714946E1,2.2889322E2,3.5305077E1,2.4371105E1,2.2883484E1,4.5320395E2,3.8186882E1,1.9179428E1,6.771471E1,2.0076488E1,5.5443993E1,7.6048584E0,1.4535759E1,1.3974063E1,4.9957363E1,3.626737E0,2.6751308E1,1.7749016E0,6.293506E0,4.9327044E0],"tree_param":{"num_deleted":"0","num_feature":"20000","num_nodes":"113","size_leaf_vector":"0"}},{"base_weights":[-2.1197562E-1,-2.5466815E-1,6.060971E-1,-3.5629162E-1,-4.0606696E-2,-2.6210827E-1,8.1435466E-1,-3.8462415E-1,9.1084115E-2,7.382304E-2,-4.6479765E-1,-3.879088E-1,5.714574E-1,9.145242E-1,-2.826811E-1,-3.0798435E-1,-5.104162E-1,-3.746873E-1,4.6711943E-1,-5.3474363E-2,5.870234E-1,-4.7682825E-1,9.630116E-1,-4.7287682E-1,6.104904E-1,1.1549468E0,-4.6662122E-1,4.6167034E-1,1.0181206E0,-4.601945E-1,8.8582015E-1,-1.8276933E-1,-4.3612164E-1,-5.1805705E-1,2.003163E-1,-4.5301032E-1,3.820215E-1,7.123977E-1,-4.4146442E-1,2.4600142E-1,-2.1348271E-1,1.4877774E-1,9.5100045E-1,-4.9935102E-1,2.6842743E-1,1.403038E0,4.2770505E-2,-5.659175E-1,4.1101232E-1,1.1450219E0,-3.7597248E-1,1.3757393E0,7.5307E-2,8.625087E-1,-1.9935839E-1,1.0300746E0,3.0932214E-2,-5.8416384E-1,7.9523367E-1,-2.6735035E-1,1.7819555E-1,-4.522595E-1,3.1853804E-1,8.446142E-1,-5.2162737E-1,-3.9025795E-1,1.1048641E0,-4.9342963E-1,6.8213046E-1,-3.8709638E-1,1.1705469E0,3.9630428E-1,1.2109015E0,-5.493988E-1,6.2381274E-1,5.717613E-1,-4.75584E-1,-3.1759906E-1,5.131332E-1,1.098233E0,-3.8152072E-1,1.2473487E0,3.6725214E-1,-5.1332825E-1,5.013259E-1,-3.5805303E-1,1.2970572E0,-6.009613E-1,2.4789491E-1,9.778819E-1,-4.1292936E-1,9.705689E-1,-2.4751757E-1,-6.013033E-1,4.8995903E-1,1.0412246E0,5.6976594E-2,4.0788677E-1,-3.779861E-1],"categories":[],"categories_nodes":[],"categories_segments":[],"categories_sizes":[],"default_left":[1,1,1,1,1,1,1,1,1,1,1,1,1,1,1,1,1,1,1,1,1,1,1,1,1,1,0,1,1,1,0,1,1,1,1,1,1,1,1,1,1,1,1,1,1,0,0,1,1,0,0,0,0,1,1,1,1,0,0,0,0,0,0,0,0,0,0,0,0,0,0,0,0,0,0,0,0,0,0,0,0,0,0,0,0,0,0,0,0,0,0,0,0,0,0,0,0,0,0],"id":9,"left_children":[1,3,5,7,9,11,13,15,17,19,21,23,25,27,29,31,33,35,37,39,41,43,45,47,49,51,-1,53,55,57,-1,59,61,63,65,67,69,71,73,75,77,79,81,83,85,-1,-1,87,89,-1,-1,-1,-1,91,93,95,97,-1,-1,-1,-1,-1,-1,-1,-1,-1,-1,-1,-1,-1,-1,-1,-1,-1,-1,-1,-1,-1,-1,-1,-1,-1,-1,-1,-1,-1,-1,-1,-1,-1,-1,-1,-1,-1,-1,-1,-1,-1,-1],"loss_changes":[2.4303345E2,1.4377676E2,6.2631355E1,5.6845642E1,1.0337482E2,7.304416E0,3.0881332E1,4.0480713E1,4.7070564E1,1.0962334E2,8.230873E0,5.317672E0,6.1484737E0,1.1520691E1,5.4024305E0,4.198787E1,8.762024E0,7.294613E0,3.342895E1,6.450532E1,5.3053963E1,7.676071E0,1.6048651E0,4.7717714E0,3.1122828E0,1.3782539E0,0E0,1.3264881E1,2.4129486E0,3.820403E0,0E0,4.0586136E1,1.5916672E1,8.116272E0,9.875394E0,5.3535576E0,7.6173325E0,1.8017326E1,4.0455017E0,1.10483086E2,6.6524704E1,7.719865E1,3.1025986E1,6.3624496E0,9.377558E0,0E0,0E0,1.5851898E0,3.1296053E0,0E0,0E0,0E0,0E0,3.9525013E0,5.6877794E0,2.161316E0,6.951628E-1,0E0,0E0,0E0,0E0,0E0,0E0,0E0,0E0,0E0,0E0,0E0,0E0,0E0,0E0,0E0,0E0,0E0,0E0,0E0,0E0,0E0,0E0,0E0,0E0,0E0,0E0,0E0,0E0,0E0,0E0,0E0,0E0,0E0,0E0,0E0,0E0,0E0,0E0,0E0,0E0,0E0,0E0],"parents":[2147483647,0,0,1,1,2,2,3,3,4,4,5,5,6,6,7,7,8,8,9,9,10,10,11,11,12,12,13,13,14,14,15,15,16,16,17,17,18,18,19,19,20,20,21,21,22,22,23,23,24,24,25,25,27,27,28,28,29,29,31,31,32,32,33,33,34,34,35,35,36,36,37,37,38,38,39,39,40,40,41,41,42,42,43,43,44,44,47,47,48,48,53,53,54,54,55,55,56,56],"right_children":[2,4,6,8,10,12,14,16,18,20,22,24,26,28,30,32,34,36,38,40,42,44,46,48,50,52,-1,54,56,58,-1,60,62,64,66,68,70,72,74,76,78,80,82,84,86,-1,-1,88,90,-1,-1,-1,-1,92,94,96,98,-1,-1,-1,-1,-1,-1,-1,-1,-1,-1,-1,-1,-1,-1,-1,-1,-1,-1,-1,-1,-1,-1,-1,-1,-1,-1,-1,-1,-1,-1,-1,-1,-1,-1,-1,-1,-1,-1,-1,-1,-1,-1],"split_conditions":[3.3066237E-1,2.7227896E-1,3.439732E-2,6.350792E-1,1.8300402E0,2.2554393E0,3.645591E-1,3.6885625E-1,2.9131502E-1,1.1958754E-9,1.5364622E0,2.3102567E0,2.9871762E-2,2.9619757E-2,3.7831935E-6,1.2561188E-3,1.6944056E0,2.3096878E-5,1.5236115E0,1.12404704E-1,4.4016894E-3,8.308308E-1,9.232384E-1,7.426158E-1,5.2912533E-1,4.9990988E-1,-1.3998637E-1,1.48918135E-2,2.453641E-1,1.1286719E0,2.6574606E-1,5.112511E-1,1.342489E0,9.0139604E-1,1.20644756E-1,2.5294754E-1,2.4591112E-5,2.7364376E-6,1.1484723E-1,3.6486697E-1,5.072873E-1,5.127259E-4,5.717272E0,6.986865E-1,3.563878E-1,4.2091143E-1,1.2831152E-2,1.2834957E0,3.262524E-1,3.4350657E-1,-1.1279175E-1,4.127218E-1,2.25921E-2,1.1665982E0,1.0063945E-1,7.6913886E-2,4.723988E-1,-1.7524916E-1,2.3857011E-1,-8.0205105E-2,5.345867E-2,-1.3567786E-1,9.5561415E-2,2.5338426E-1,-1.5648821E-1,-1.1707739E-1,3.3145925E-1,-1.480289E-1,2.0463915E-1,-1.16128914E-1,3.5116407E-1,1.1889129E-1,3.6327046E-1,-1.6481964E-1,1.8714383E-1,1.715284E-1,-1.426752E-1,-9.527972E-2,1.5393998E-1,3.2946992E-1,-1.1445622E-1,3.742046E-1,1.1017565E-1,-1.5399848E-1,1.5039778E-1,-1.07415915E-1,3.8911715E-1,-1.802884E-1,7.436848E-2,2.9336458E-1,-1.23878814E-1,2.911707E-1,-7.425527E-2,-1.8039098E-1,1.4698772E-1,3.1236738E-1,1.7092979E-2,1.2236603E-1,-1.1339583E-1],"split_indices":[5320,376,3,301,57,8524,25,17,27,13018,845,11902,11492,5647,18536,11396,4,19364,57,27,5764,2967,151,4143,294,251,0,472,12857,1307,0,3247,954,16682,5148,12997,11959,18805,12038,25,301,3924,17253,8887,1793,0,0,4871,263,0,0,0,0,5063,8824,17163,5,0,0,0,0,0,0,0,0,0,0,0,0,0,0,0,0,0,0,0,0,0,0,0,0,0,0,0,0,0,0,0,0,0,0,0,0,0,0,0,0,0,0],"split_type":[0,0,0,0,0,0,0,0,0,0,0,0,0,0,0,0,0,0,0,0,0,0,0,0,0,0,0,0,0,0,0,0,0,0,0,0,0,0,0,0,0,0,0,0,0,0,0,0,0,0,0,0,0,0,0,0,0,0,0,0,0,0,0,0,0,0,0,0,0,0,0,0,0,0,0,0,0,0,0,0,0,0,0,0,0,0,0,0,0,0,0,0,0,0,0,0,0,0,0],"sum_hessian":[6.953187E3,6.608975E3,3.44212E2,4.4810015E3,2.1279739E3,6.654284E1,2.7766916E2,4.214251E3,2.6675037E2,1.6765371E3,4.5143665E2,5.8281693E1,8.2611475E0,2.5458919E2,2.3079983E1,2.6208975E3,1.5933535E3,1.1915907E2,1.4759131E2,1.3440471E3,3.3249002E2,4.4832513E2,3.1115067E0,5.4195766E1,4.0859265E0,5.2164645E0,3.044683E0,4.8413696E1,2.0617549E2,2.0562403E1,2.5175798E0,1.326791E3,1.2941064E3,1.5766744E3,1.6679083E1,1.0834607E2,1.0813001E1,1.1638761E2,3.1203691E1,4.6785678E2,8.7619037E2,1.5149345E2,1.8099655E2,4.3549377E2,1.283134E1,1.7500525E0,1.3614542E0,4.9359756E1,4.836007E0,2.5457394E0,1.5401869E0,4.1031E0,1.1133648E0,2.9948536E1,1.846516E1,2.0366586E2,2.5096312E0,1.9201052E1,1.3613505E0,1.0751273E3,2.5166368E2,1.2674045E3,2.6701859E1,3.504661E0,1.5731698E3,1.0434812E1,6.2442703E0,1.0516668E2,3.1793878E0,5.731579E0,5.0814223E0,7.232344E1,4.4064175E1,2.8772697E1,2.430995E0,3.224805E2,1.4537627E2,7.668691E2,1.09321304E2,5.3906815E1,9.758664E1,1.1929695E2,6.1699593E1,4.29975E2,5.518781E0,8.379668E0,4.4516716E0,4.757276E1,1.7869968E0,2.7542539E0,2.081753E0,2.7406199E1,2.542338E0,1.1744538E1,6.720623E0,2.0128941E2,2.3764439E0,1.3071654E0,1.202466E0],"tree_param":{"num_deleted":"0","num_feature":"20000","num_nodes":"99","size_leaf_vector":"0"}},{"base_weights":[1.0428129E-1,4.1031696E-2,5.1837766E-1,8.435688E-2,-3.419502E-1,7.633673E-1,2.9653397E-1,2.1428348E-1,7.436349E-3,-1.963578E-1,-4.5922303E-1,8.1413174E-1,2.3825027E-1,-4.2782587E-1,6.792052E-1,3.303099E-1,-1.0503629E-1,1.2614477E-1,-1.3490617E-1,-3.2628208E-1,3.1862155E-2,2.2543725E-1,-4.921016E-1,8.3275044E-1,-9.961342E-2,8.4495586E-1,-8.582119E-2,-5.1739246E-1,1.1163468E-1,-1.4467324E-1,9.256558E-1,2.1464269E-1,6.28798E-1,4.331313E-2,-4.2316014E-1,6.994667E-2,6.680965E-1,-2.017181E-1,2.9351702E-1,-4.048513E-1,1.3901024E-1,-1.7813991E-1,4.9219894E-1,8.689971E-1,-3.7030745E-1,2.4076486E-1,-5.1228577E-1,8.5490656E-1,8.619196E-2,4.9418747E-1,-5.3004926E-1,1.0342289E0,-4.9387094E-1,-3.3903214E-1,6.503851E-1,3.5969627E-1,-5.564857E-1,-2.2002032E-1,8.62234E-1,1.9307062E-1,-5.900396E-1,9.499306E-1,-1.8291445E-1,2.8689495E-1,-2.2126962E-1,2.0588729E-1,8.0749667E-1,-3.6196157E-2,5.8655757E-1,-5.1252306E-1,2.1874188E-1,-2.1367135E-2,2.8005698E-1,8.551139E-1,-1.8445796E-1,-3.1360123E-1,-2.815482E-2,-1.0232172E-3,9.8175985E-1,-4.4259533E-1,5.8820474E-1,-1.8046749E-1,9.2933744E-1,-2.756035E-1,7.903804E-1,1.3263497E0,1.06087305E-1,-4.1345304E-1,1.2851924E0,-5.467553E-1,6.2910473E-1,-5.209019E-1,1.0412674E0,-5.223228E-1,6.061874E-1,8.902893E-1,4.4302648E-1,6.8565613E-1,-5.0449926E-1,6.9766384E-1,-2.094226E-2,-5.341307E-1,5.7826424E-1,9.359982E-1,-4.060299E-1,9.1420937E-1,-4.6242988E-1,-5.7308143E-1,8.0435723E-1,-4.133237E-1,9.282033E-1,1.1999261E0,-3.9921772E-1,8.0624837E-1,-3.6781284E-1,9.678201E-1,-2.8020997E-2,-5.617722E-1,7.9707557E-1],"categories":[],"categories_nodes":[],"categories_segments":[],"categories_sizes":[],"default_left":[1,1,1,1,1,1,1,1,1,1,1,1,1,1,1,1,1,1,1,1,1,1,1,1,1,1,1,1,1,1,1,1,1,1,1,1,1,1,1,1,1,1,1,1,1,1,1,1,1,1,0,0,0,1,1,1,1,1,1,1,0,1,1,0,0,0,0,0,0,0,0,0,0,0,0,0,0,0,0,0,0,0,0,0,0,0,0,0,0,0,0,0,0,0,0,0,0,0,0,0,0,0,0,0,0,0,0,0,0,0,0,0,0,0,0,0,0,0,0],"id":10,"left_children":[1,3,5,7,9,11,13,15,17,19,21,23,25,27,29,31,33,35,37,39,41,43,45,47,49,51,53,55,57,59,61,63,65,67,69,71,73,75,77,79,81,83,85,87,89,91,93,95,97,99,-1,-1,-1,101,103,105,107,109,111,113,-1,115,117,-1,-1,-1,-1,-1,-1,-1,-1,-1,-1,-1,-1,-1,-1,-1,-1,-1,-1,-1,-1,-1,-1,-1,-1,-1,-1,-1,-1,-1,-1,-1,-1,-1,-1,-1,-1,-1,-1,-1,-1,-1,-1,-1,-1,-1,-1,-1,-1,-1,-1,-1,-1,-1,-1,-1,-1],"loss_changes":[2.1439465E2,1.178847E2,5.872348E1,6.3778214E1,1.223819E1,1.3529175E1,1.5852457E2,8.795954E1,6.776864E1,9.613828E0,9.096619E0,8.062012E0,9.2729025E0,9.621761E0,7.6053925E1,5.9970993E1,2.9903364E1,6.655687E1,5.2262978E1,7.6044807E0,1.1534073E1,7.5973444E0,5.7621384E0,7.530945E0,2.8840463E0,4.662673E0,6.0756598E0,6.0268784E0,7.4107223E0,1.3194333E1,7.922531E0,3.962927E1,3.6539474E1,1.8713655E1,1.1669434E1,3.8041985E1,3.2898148E1,3.0640564E1,4.9960976E1,6.8909416E0,7.8870897E0,7.962556E0,1.18918E1,5.559814E0,2.2053733E0,7.186848E0,4.4849014E0,6.110901E0,5.431861E0,5.2075064E-1,0E0,0E0,0E0,4.609053E0,2.9087713E0,4.005243E0,4.14386E0,5.0257554E0,4.3522587E0,1.7564339E1,0E0,4.9596252E0,3.0499523E0,0E0,0E0,0E0,0E0,0E0,0E0,0E0,0E0,0E0,0E0,0E0,0E0,0E0,0E0,0E0,0E0,0E0,0E0,0E0,0E0,0E0,0E0,0E0,0E0,0E0,0E0,0E0,0E0,0E0,0E0,0E0,0E0,0E0,0E0,0E0,0E0,0E0,0E0,0E0,0E0,0E0,0E0,0E0,0E0,0E0,0E0,0E0,0E0,0E0,0E0,0E0,0E0,0E0,0E0,0E0,0E0],"parents":[2147483647,0,0,1,1,2,2,3,3,4,4,5,5,6,6,7,7,8,8,9,9,10,10,11,11,12,12,13,13,14,14,15,15,16,16,17,17,18,18,19,19,20,20,21,21,22,22,23,23,24,24,25,25,26,26,27,27,28,28,29,29,30,30,31,31,32,32,33,33,34,34,35,35,36,36,37,37,38,38,39,39,40,40,41,41,42,42,43,43,44,44,45,45,46,46,47,47,48,48,49,49,53,53,54,54,55,55,56,56,57,57,58,58,59,59,61,61,62,62],"right_children":[2,4,6,8,10,12,14,16,18,20,22,24,26,28,30,32,34,36,38,40,42,44,46,48,50,52,54,56,58,60,62,64,66,68,70,72,74,76,78,80,82,84,86,88,90,92,94,96,98,100,-1,-1,-1,102,104,106,108,110,112,114,-1,116,118,-1,-1,-1,-1,-1,-1,-1,-1,-1,-1,-1,-1,-1,-1,-1,-1,-1,-1,-1,-1,-1,-1,-1,-1,-1,-1,-1,-1,-1,-1,-1,-1,-1,-1,-1,-1,-1,-1,-1,-1,-1,-1,-1,-1,-1,-1,-1,-1,-1,-1,-1,-1,-1,-1,-1,-1],"split_conditions":[2.7200085E-1,4.8313424E-2,1.4762798E-1,1.3682032E0,2.1541806E-1,9.074222E-1,1.7004296E-1,4.5739126E-1,1.332018E-1,2.3380572E-3,5.2319426E-2,5.0591326E-1,1.5161317E-3,5.9082735E-1,3.855578E-1,1.172708E-1,3.736505E-1,1.2204783E-8,3.3606297E-1,9.4411775E-2,2.4146328E-2,1.454204E-1,1.13088086E-1,2.0522398E-1,9.147067E-9,9.987734E-1,4.9621975E-3,1.3088629E-1,4.6709156E-1,6.289816E-2,1.1284406E-3,1.1054388E-7,9.960097E-1,4.6032092E-1,4.6137345E-1,7.766258E-1,1.5853494E-3,1.9090876E-1,1.08183E0,9.887696E-2,2.665152E-1,1.04663745E-1,4.3766445E-4,7.549343E-2,1.2052944E-3,5.391278E-2,2.2325513E-1,2.4321789E-1,8.55087E-1,7.780489E-1,-1.5901479E-1,3.102687E-1,-1.4816129E-1,5.104464E-1,9.9593556E-1,3.6608505E-1,9.956839E-1,2.6438198E0,2.0212314E0,1.6312128E-2,-1.7701189E-1,1.3481349E0,3.182838E-1,8.606849E-2,-6.638089E-2,6.176619E-2,2.4224901E-1,-1.0858848E-2,1.7596728E-1,-1.5375692E-1,6.562257E-2,-6.4101405E-3,8.40171E-2,2.565342E-1,-5.5337388E-2,-9.408037E-2,-8.446447E-3,-3.0696517E-4,2.9452798E-1,-1.327786E-1,1.7646143E-1,-5.4140247E-2,2.7880123E-1,-8.268105E-2,2.3711413E-1,3.9790493E-1,3.1826194E-2,-1.2403592E-1,3.8555774E-1,-1.640266E-1,1.8873143E-1,-1.5627058E-1,3.1238022E-1,-1.5669684E-1,1.8185623E-1,2.670868E-1,1.3290796E-1,2.0569685E-1,-1.5134978E-1,2.0929916E-1,-6.2826783E-3,-1.6023922E-1,1.7347927E-1,2.8079948E-1,-1.21808976E-1,2.7426282E-1,-1.3872898E-1,-1.7192444E-1,2.4130718E-1,-1.23997115E-1,2.78461E-1,3.5997784E-1,-1.1976532E-1,2.4187452E-1,-1.1034386E-1,2.9034606E-1,-8.406299E-3,-1.6853167E-1,2.3912267E-1],"split_indices":[492,5876,27,10940,5876,332,4,6,5896,15075,757,5320,8389,17,25,4215,427,19706,2513,11654,14219,4094,3620,11959,4017,4517,14088,4517,651,17910,19706,16860,2259,2893,25,4552,13018,17,2,16515,5910,16777,13065,4359,13396,8235,16845,9638,7231,4,0,0,0,1185,1618,2406,4491,11101,6384,11066,0,2051,286,0,0,0,0,0,0,0,0,0,0,0,0,0,0,0,0,0,0,0,0,0,0,0,0,0,0,0,0,0,0,0,0,0,0,0,0,0,0,0,0,0,0,0,0,0,0,0,0,0,0,0,0,0,0,0,0],"split_type":[0,0,0,0,0,0,0,0,0,0,0,0,0,0,0,0,0,0,0,0,0,0,0,0,0,0,0,0,0,0,0,0,0,0,0,0,0,0,0,0,0,0,0,0,0,0,0,0,0,0,0,0,0,0,0,0,0,0,0,0,0,0,0,0,0,0,0,0,0,0,0,0,0,0,0,0,0,0,0,0,0,0,0,0,0,0,0,0,0,0,0,0,0,0,0,0,0,0,0,0,0,0,0,0,0,0,0,0,0,0,0,0,0,0,0,0,0,0,0],"sum_hessian":[8.1854927E3,7.101847E3,1.0836459E3,6.3807935E3,7.2105347E2,5.13799E2,5.698468E2,2.3721704E3,4.008623E3,3.2287878E2,3.9817468E2,4.6800534E2,4.579369E1,1.9694012E2,3.729067E2,1.7399255E3,6.32245E2,2.1858328E3,1.8227902E3,2.0547398E2,1.17404816E2,1.797652E1,3.8019815E2,4.5874643E2,9.258891E0,1.5384504E1,3.0409187E1,1.6893307E2,2.8007042E1,8.595941E1,2.869473E2,1.2552301E3,4.8469547E2,4.317654E2,2.0047958E2,1.9814897E3,2.0434303E2,1.5773362E3,2.4545398E2,1.7590121E2,2.9572756E1,8.104551E1,3.6359306E1,8.420985E0,9.555536E0,9.89761E0,3.7030054E2,4.4538333E2,1.33631E1,3.8288093E0,5.430082E0,1.3678285E1,1.7062199E0,2.302831E1,7.380875E0,6.8584003E0,1.6207468E2,1.9914585E1,8.092458E0,4.9208557E1,3.675085E1,2.8093857E2,6.008725E0,1.0770511E3,1.7817886E2,1.4461043E2,3.4008502E2,3.774545E2,5.4310898E1,1.7615726E2,2.4322329E1,1.381841E3,5.996488E2,1.6757956E2,3.676347E1,9.5859546E2,6.187407E2,1.7259065E2,7.2863335E1,1.6999438E2,5.9068346E0,2.1609215E1,7.963541E0,7.428549E1,6.7600164E0,1.0734179E1,2.562513E1,2.06489E0,6.356095E0,8.506604E0,1.0489318E0,5.250815E0,4.646795E0,3.6753534E2,2.765211E0,4.0907962E2,3.6303707E1,6.5525064E0,6.810593E0,2.4906545E0,1.3381548E0,1.9333918E1,3.6943939E0,5.89979E0,1.4810854E0,4.028933E0,2.8294675E0,1.6069386E2,1.3808076E0,1.7592861E1,2.3217251E0,6.4220424E0,1.670415E0,2.3299383E1,2.5909176E1,2.7590192E2,5.0366673E0,4.6412177E0,1.3675075E0],"tree_param":{"num_deleted":"0","num_feature":"20000","num_nodes":"119","size_leaf_vector":"0"}},{"base_weights":[1.5535833E-1,2.9193267E-1,-6.2106267E-2,3.5287523E-1,-1.4596672E-1,-1.3114722E-1,2.8362638E-1,2.0761514E-1,5.6709784E-1,1.2917316E-1,-4.3550298E-1,1.4644906E-1,-2.210294E-1,4.6599478E-1,-3.750812E-1,1.0809094E-1,4.744549E-1,6.6864175E-1,2.2756931E-1,-4.2805206E-2,7.267541E-1,-4.936396E-1,4.612288E-1,2.268897E-2,6.9486076E-1,-2.6032877E-1,5.7294476E-1,1.2391985E-1,8.454056E-1,-4.504489E-1,3.577706E-1,-2.197221E-2,3.2810944E-1,7.722892E-1,3.2021758E-1,7.279202E-1,7.361258E-2,8.702845E-2,7.04385E-1,-2.9582053E-1,2.2957446E-1,9.287736E-1,-2.4316801E-1,-5.18504E-1,5.112347E-1,-3.798381E-1,7.892554E-1,2.6033965E-1,-2.0595057E-1,8.355734E-1,-2.1209261E-1,-2.862289E-1,6.255924E-1,-1.8288496E-1,1.0060686E0,-1.9130273E-1,4.1666526E-1,-3.1397825E-1,1.0089866E0,-5.5485165E-1,2.1433403E-1,1.0711826E0,-2.67187E-1,-1.4070615E-1,1.8498674E-1,5.6005794E-1,6.067066E-2,9.358518E-1,2.950155E-1,3.8761437E-1,-1.8385464E-1,8.2799286E-1,4.2083335E-1,-2.4377891E-1,5.5668867E-1,4.58141E-1,-1.4081232E-1,5.4342203E-2,9.104382E-1,6.309344E-1,-3.8444975E-1,4.0428978E-1,-3.4094167E-1,1.0510274E0,-7.98929E-2,-5.8243376E-1,9.763269E-1,-5.317132E-1,9.9788564E-1,-4.5400602E-1,1.3236903E0,-4.9183065E-1,9.078321E-2,9.4761866E-1,-3.5980505E-1,9.932739E-2,7.652227E-1,-2.7904493E-1,5.8873856E-1,1.0182258E0,2.2089028E-1,-5.74968E-1,6.9384235E-1,1.2924129E-1,-3.2611507E-1,-2.5082067E-1,1.223683E0,5.291376E-1,-5.071232E-1,1.3270348E0,1.1400284E-2,-4.8694894E-1,1.8454844E-1,-2.8186965E-1,6.4593416E-1,-4.802102E-1,1.0215861E0,1.0326889E0,-5.518968E-1,-5.961047E-1,4.99115E-1,1.1692569E0,-2.9733208E-1,5.7620245E-1,-5.2524537E-1],"categories":[],"categories_nodes":[],"categories_segments":[],"categories_sizes":[],"default_left":[1,1,1,1,1,1,1,1,1,1,1,1,1,1,1,1,1,1,1,1,1,1,1,1,1,1,1,1,1,1,1,1,1,1,1,1,1,1,1,1,1,1,1,1,1,1,1,1,1,1,1,1,1,1,1,1,1,1,1,1,1,0,1,0,0,0,0,0,0,0,0,0,0,0,0,0,0,0,0,0,0,0,0,0,0,0,0,0,0,0,0,0,0,0,0,0,0,0,0,0,0,0,0,0,0,0,0,0,0,0,0,0,0,0,0,0,0,0,0,0,0,0,0,0,0],"id":11,"left_children":[1,3,5,7,9,11,13,15,17,19,21,23,25,27,29,31,33,35,37,39,41,43,45,47,49,51,53,55,57,59,61,63,65,67,69,71,73,75,77,79,81,83,85,87,89,91,93,95,97,99,101,103,105,107,109,111,113,115,117,119,121,-1,123,-1,-1,-1,-1,-1,-1,-1,-1,-1,-1,-1,-1,-1,-1,-1,-1,-1,-1,-1,-1,-1,-1,-1,-1,-1,-1,-1,-1,-1,-1,-1,-1,-1,-1,-1,-1,-1,-1,-1,-1,-1,-1,-1,-1,-1,-1,-1,-1,-1,-1,-1,-1,-1,-1,-1,-1,-1,-1,-1,-1,-1,-1],"loss_changes":[2.50075E2,1.3806717E2,7.758268E1,1.4116345E2,5.0444992E1,6.761508E1,6.517297E1,7.184268E1,6.3079407E1,3.3441578E1,1.6306927E1,4.499035E1,6.400587E1,5.4951157E1,6.671755E0,5.6468338E1,3.3521744E1,4.9725464E1,2.833473E1,1.753055E1,1.4472282E1,7.514206E0,5.623244E0,2.9506649E1,1.5754166E1,4.4938385E1,3.1883476E1,2.0773392E1,3.84283E1,7.5678368E0,5.4354877E0,3.0519947E1,4.5441162E1,1.9247528E1,1.6582645E1,3.9088867E1,1.9909952E1,2.7833979E1,1.2852531E1,1.1068389E1,1.235717E1,7.529785E0,6.081946E0,6.211632E0,6.489764E0,3.655796E-1,2.926077E0,2.1566402E1,1.6244076E1,1.16610565E1,6.050388E0,3.146109E1,2.9515337E1,8.607381E0,1.9686253E1,1.2164547E1,1.8853348E1,6.176347E0,7.0940094E0,4.342682E0,7.8177643E0,0E0,1.8167224E0,0E0,0E0,0E0,0E0,0E0,0E0,0E0,0E0,0E0,0E0,0E0,0E0,0E0,0E0,0E0,0E0,0E0,0E0,0E0,0E0,0E0,0E0,0E0,0E0,0E0,0E0,0E0,0E0,0E0,0E0,0E0,0E0,0E0,0E0,0E0,0E0,0E0,0E0,0E0,0E0,0E0,0E0,0E0,0E0,0E0,0E0,0E0,0E0,0E0,0E0,0E0,0E0,0E0,0E0,0E0,0E0,0E0,0E0,0E0,0E0,0E0,0E0],"parents":[2147483647,0,0,1,1,2,2,3,3,4,4,5,5,6,6,7,7,8,8,9,9,10,10,11,11,12,12,13,13,14,14,15,15,16,16,17,17,18,18,19,19,20,20,21,21,22,22,23,23,24,24,25,25,26,26,27,27,28,28,29,29,30,30,31,31,32,32,33,33,34,34,35,35,36,36,37,37,38,38,39,39,40,40,41,41,42,42,43,43,44,44,45,45,46,46,47,47,48,48,49,49,50,50,51,51,52,52,53,53,54,54,55,55,56,56,57,57,58,58,59,59,60,60,62,62],"right_children":[2,4,6,8,10,12,14,16,18,20,22,24,26,28,30,32,34,36,38,40,42,44,46,48,50,52,54,56,58,60,62,64,66,68,70,72,74,76,78,80,82,84,86,88,90,92,94,96,98,100,102,104,106,108,110,112,114,116,118,120,122,-1,124,-1,-1,-1,-1,-1,-1,-1,-1,-1,-1,-1,-1,-1,-1,-1,-1,-1,-1,-1,-1,-1,-1,-1,-1,-1,-1,-1,-1,-1,-1,-1,-1,-1,-1,-1,-1,-1,-1,-1,-1,-1,-1,-1,-1,-1,-1,-1,-1,-1,-1,-1,-1,-1,-1,-1,-1,-1,-1,-1,-1,-1,-1],"split_conditions":[4.990692E-1,1.9541936E-1,4.5326002E-2,1.805884E-1,9.041248E-2,6.669868E-3,6.265542E-1,5.9702975E-1,3.22139E-1,3.1318814E-1,1.4678319E0,2.4579084E-4,1.845862E-1,1.0517589E0,1.4080963E-1,3.347744E-1,4.896905E0,6.0859096E-1,1.1842096E-1,1.3089206E0,5.937599E0,7.255751E-2,2.9392757E-2,1.7595478E0,2.6266807E-1,5.203209E-1,7.726902E-1,4.1141215E-4,2.2076203E-1,1.6648074E0,2.7754265E-3,5.126728E-1,1.530488E-3,2.2230102E-9,3.6431402E-1,7.9528105E-1,7.308506E-1,6.035815E-1,2.0511625E0,2.6005663E-2,6.7797506E-1,3.761488E-1,9.48746E-2,1.9126947E0,1.3927123E-1,5.7230514E-1,9.1976225E-2,8.4623E-3,1.1867881E0,6.41405E-1,5.459343E-1,1.02176785E-1,8.047306E-1,3.107196E-1,1.3486216E0,3.1057942E-1,1.5219556E-1,8.4642875E-1,2.3349152E0,5.8966935E-2,2.72395E-1,3.213548E-1,2.4614747E-1,-4.2211846E-2,5.5496026E-2,1.6801739E-1,1.8201198E-2,2.8075555E-1,8.850466E-2,1.1628432E-1,-5.5156395E-2,2.4839787E-1,1.2625001E-1,-7.313368E-2,1.6700661E-1,1.374423E-1,-4.2243697E-2,1.6302662E-2,2.7313146E-1,1.8928033E-1,-1.1533493E-1,1.21286936E-1,-1.022825E-1,3.1530824E-1,-2.3967871E-2,-1.7473014E-1,2.928981E-1,-1.5951397E-1,2.993657E-1,-1.3620181E-1,3.971071E-1,-1.475492E-1,2.7234964E-2,2.842856E-1,-1.07941516E-1,2.9798219E-2,2.2956683E-1,-8.371348E-2,1.7662157E-1,3.0546775E-1,6.626709E-2,-1.724904E-1,2.0815271E-1,3.877239E-2,-9.783453E-2,-7.52462E-2,3.6710492E-1,1.587413E-1,-1.5213695E-1,3.9811048E-1,3.4200854E-3,-1.4608468E-1,5.5364534E-2,-8.45609E-2,1.9378026E-1,-1.4406307E-1,3.0647582E-1,3.0980667E-1,-1.6556905E-1,-1.7883141E-1,1.497345E-1,3.507771E-1,-8.9199625E-2,1.7286074E-1,-1.5757361E-1],"split_indices":[2015,492,5763,2762,3926,522,2,17,425,5647,17,15404,12812,6181,12812,1005,17253,599,10239,57,17253,19990,5594,9921,492,5647,3,11895,27,10940,9765,25,1351,13547,3881,4552,954,5813,10725,5144,6,5673,16582,164,4148,1916,7825,11396,805,2666,1217,96,2,741,10940,62,27,3196,9564,19224,1145,0,475,0,0,0,0,0,0,0,0,0,0,0,0,0,0,0,0,0,0,0,0,0,0,0,0,0,0,0,0,0,0,0,0,0,0,0,0,0,0,0,0,0,0,0,0,0,0,0,0,0,0,0,0,0,0,0,0,0,0,0,0,0,0],"split_type":[0,0,0,0,0,0,0,0,0,0,0,0,0,0,0,0,0,0,0,0,0,0,0,0,0,0,0,0,0,0,0,0,0,0,0,0,0,0,0,0,0,0,0,0,0,0,0,0,0,0,0,0,0,0,0,0,0,0,0,0,0,0,0,0,0,0,0,0,0,0,0,0,0,0,0,0,0,0,0,0,0,0,0,0,0,0,0,0,0,0,0,0,0,0,0,0,0,0,0,0,0,0,0,0,0,0,0,0,0,0,0,0,0,0,0,0,0,0,0,0,0,0,0,0,0],"sum_hessian":[8.418398E3,5.1706997E3,3.2476985E3,4.539176E3,6.315239E2,2.7076216E3,5.4007684E2,2.706155E3,1.8330208E3,3.2409628E2,3.0742764E2,6.6210785E2,2.0455137E3,4.2320245E2,1.1687439E2,1.9720409E3,7.341142E2,1.4102758E3,4.22745E2,2.5238931E2,7.170698E1,2.8913223E2,1.829541E1,5.4105035E2,1.2105748E2,1.9496824E3,9.583138E1,2.2324892E2,1.9995352E2,1.0632509E2,1.05493E1,1.2399495E3,7.320915E2,2.4909718E2,4.8501703E2,1.2823057E3,1.27970085E2,3.2742065E2,9.532433E1,1.3080116E2,1.2158815E2,5.938123E1,1.2325749E1,2.8262308E2,6.509165E0,5.089045E0,1.3206366E1,2.6522928E2,2.758211E2,1.0486631E2,1.6191168E1,1.8949596E3,5.47227E1,3.5120876E1,6.0710503E1,1.0766445E2,1.1558447E2,2.4610025E1,1.7534349E2,9.203635E1,1.4288745E1,4.592633E0,5.9566674E0,7.881194E2,4.5183002E2,3.9147382E2,3.406177E2,1.8480374E2,6.429344E1,4.2801984E2,5.6997196E1,9.658579E2,3.164477E2,7.752792E1,5.0442165E1,1.2416573E2,2.0325493E2,2.324772E1,7.2076614E1,1.0883071E1,1.1991809E2,9.330554E1,2.8282606E1,5.2924587E1,6.456641E0,1.0051736E1,2.274014E0,2.8082617E2,1.7969037E0,3.1765025E0,3.3326623E0,4.0744033E0,1.014642E0,1.1760803E1,1.4455619E0,2.020047E2,6.3224575E1,2.531826E2,2.263851E1,8.033758E1,2.4528732E1,1.1821398E1,4.36977E0,1.6578961E2,1.72917E3,2.2432226E1,3.229047E1,1.0791329E1,2.4329548E1,4.564675E1,1.506375E1,6.0096603E1,4.7567844E1,2.8505302E1,8.707917E1,2.2455526E1,2.1544993E0,1.7305405E2,2.289457E0,8.898772E1,3.0486262E0,4.5367007E0,9.752044E0,1.1067466E0,4.8499207E0],"tree_param":{"num_deleted":"0","num_feature":"20000","num_nodes":"125","size_leaf_vector":"0"}},{"base_weights":[-7.529661E-2,-2.9803772E-2,-3.5873052E-1,1.2170977E-2,-3.9568186E-1,-3.8577765E-1,3.0062285E-1,-5.227215E-2,2.3104319E-1,-5.08128E-1,-1.3790074E-1,-4.6038795E-1,-1.4143315E-1,6.171839E-1,-5.691368E-1,-1.1682256E-1,1.2633173E-1,4.3795538E-1,8.476736E-2,-5.492295E-1,-1.959393E-1,1.0487977E-1,-4.5211798E-1,-4.9398014E-1,-2.3556294E-2,-3.341838E-1,3.1183577E-1,9.99707E-1,-2.480868E-1,-5.9115723E-2,-3.0924493E-1,2.6470205E-1,-7.093082E-2,7.5383306E-1,2.0933063E-1,-5.02799E-3,6.2162787E-1,-5.58101E-1,3.6762172E-1,-3.8652372E-1,5.461286E-1,-8.4717676E-2,6.909447E-1,7.0362836E-1,-5.163331E-1,-5.049715E-1,6.9165844E-1,5.649432E-1,-4.9124813E-1,-4.2168254E-1,3.986803E-1,7.066012E-1,-2.7663878E-1,1.3496549E0,-4.8671502E-1,-5.390368E-1,1.058458E0,9.354207E-3,-2.1519881E-1,-1.1955816E-1,-4.3751496E-1,6.114717E-1,1.0566682E-1,1.5437222E-1,-5.5531883E-1,2.573293E-1,8.6722606E-1,9.0136565E-2,9.728877E-1,2.2504595E-1,-2.641719E-1,7.941842E-1,-2.705033E-1,-5.628505E-1,5.6713223E-1,-3.5311243E-1,8.570121E-1,-5.295554E-1,5.5331135E-1,9.951698E-1,-4.6587372E-1,-2.2141953E-1,6.588076E-1,-4.7395507E-1,8.736845E-1,-3.4296784E-1,1.2365963E0,-5.604947E-1,5.5116606E-1,-5.120245E-1,8.79796E-1,1.6762273E0,-4.4937816E-1,-1.6295181E-1,1.4037384E0,-5.904217E-1,7.282664E-1,-4.544195E-1,9.7679615E-1,8.358255E-1,-5.231091E-1,-1.5672527E-1,1.1107972E0,-5.4563123E-1,8.2030785E-1,1.6954323E0,-2.0207616E-2],"categories":[],"categories_nodes":[],"categories_segments":[],"categories_sizes":[],"default_left":[1,1,1,1,1,1,1,1,1,1,1,1,1,1,0,1,1,1,1,1,1,1,1,1,1,1,1,1,1,1,1,1,1,1,1,1,1,1,1,1,1,1,1,1,1,1,1,1,1,1,1,1,1,1,0,0,0,0,0,0,0,0,0,0,0,0,0,0,0,0,0,0,0,0,0,0,0,0,0,0,0,0,0,0,0,0,0,0,0,0,0,0,0,0,0,0,0,0,0,0,0,0,0,0,0,0,0],"id":12,"left_children":[1,3,5,7,9,11,13,15,17,19,21,23,25,27,-1,29,31,33,35,37,39,41,43,45,47,49,51,53,55,57,59,61,63,65,67,69,71,73,75,77,79,81,83,85,87,89,91,93,95,97,99,101,103,105,-1,-1,-1,-1,-1,-1,-1,-1,-1,-1,-1,-1,-1,-1,-1,-1,-1,-1,-1,-1,-1,-1,-1,-1,-1,-1,-1,-1,-1,-1,-1,-1,-1,-1,-1,-1,-1,-1,-1,-1,-1,-1,-1,-1,-1,-1,-1,-1,-1,-1,-1,-1,-1],"loss_changes":[9.180464E1,9.425338E1,1.7677551E1,7.767736E1,1.8238365E1,1.7187988E1,1.118978E1,4.906638E1,3.787594E1,5.5306473E0,1.4786535E1,1.0620651E1,1.9571697E1,9.959367E0,0E0,3.4689552E1,3.086151E1,3.7290993E1,3.5440273E1,3.3589325E0,7.6607714E0,1.2259796E1,6.6273956E0,9.116653E0,1.48071575E1,1.0224279E1,1.5760191E1,1.1343712E1,4.2943316E0,2.5712763E1,1.7487602E1,3.6572227E1,5.1011623E1,1.2013451E1,2.7416903E1,3.7666374E1,1.6431473E1,2.3736267E0,1.8259026E0,6.005689E0,5.543454E0,8.669171E0,6.1509132E0,3.1383564E0,4.1056423E0,6.966568E0,8.169636E0,1.4784906E1,4.0520935E0,6.8799725E0,7.3843613E0,1.4265224E1,8.597061E0,8.036751E0,0E0,0E0,0E0,0E0,0E0,0E0,0E0,0E0,0E0,0E0,0E0,0E0,0E0,0E0,0E0,0E0,0E0,0E0,0E0,0E0,0E0,0E0,0E0,0E0,0E0,0E0,0E0,0E0,0E0,0E0,0E0,0E0,0E0,0E0,0E0,0E0,0E0,0E0,0E0,0E0,0E0,0E0,0E0,0E0,0E0,0E0,0E0,0E0,0E0,0E0,0E0,0E0,0E0],"parents":[2147483647,0,0,1,1,2,2,3,3,4,4,5,5,6,6,7,7,8,8,9,9,10,10,11,11,12,12,13,13,15,15,16,16,17,17,18,18,19,19,20,20,21,21,22,22,23,23,24,24,25,25,26,26,27,27,28,28,29,29,30,30,31,31,32,32,33,33,34,34,35,35,36,36,37,37,38,38,39,39,40,40,41,41,42,42,43,43,44,44,45,45,46,46,47,47,48,48,49,49,50,50,51,51,52,52,53,53],"right_children":[2,4,6,8,10,12,14,16,18,20,22,24,26,28,-1,30,32,34,36,38,40,42,44,46,48,50,52,54,56,58,60,62,64,66,68,70,72,74,76,78,80,82,84,86,88,90,92,94,96,98,100,102,104,106,-1,-1,-1,-1,-1,-1,-1,-1,-1,-1,-1,-1,-1,-1,-1,-1,-1,-1,-1,-1,-1,-1,-1,-1,-1,-1,-1,-1,-1,-1,-1,-1,-1,-1,-1,-1,-1,-1,-1,-1,-1,-1,-1,-1,-1,-1,-1,-1,-1,-1,-1,-1,-1],"split_conditions":[7.5084925E-1,2.4313238E-1,6.225375E0,2.57183E-3,2.9038486E-1,2.6908566E-8,4.236211E-1,7.029021E-2,1.07440196E-1,2.412986E-1,4.5047545E-1,1.1660236E-1,7.511884E-2,2.7786423E-2,-1.7074105E-1,3.521351E-9,3.5083294E-2,4.2691945E-6,2.8090507E-1,7.147037E-1,1.1410748E0,7.465431E-1,1.3943463E-6,2.213701E-1,5.828302E-1,8.261432E-1,4.1707927E-1,1.0455136E0,4.7552787E-2,3.5283586E-1,3.7371933E-3,7.576913E-1,4.9626386E-1,1.2681491E0,2.1271813E-3,4.752102E-1,1.3509787E-4,1.6354529E0,1.0261536E0,3.8809005E-2,3.66475E-2,3.231439E-1,5.487711E-2,6.339076E-2,1.8817905E-1,1.1645164E0,3.4909356E-1,5.5797353E-2,5.027158E-1,5.57934E-1,4.366188E-4,1.190509E-5,2.2827083E-2,1.2991047E-3,-1.4601451E-1,-1.6171105E-1,3.175374E-1,2.806262E-3,-6.4559646E-2,-3.586745E-2,-1.312545E-1,1.8344152E-1,3.170005E-2,4.6311665E-2,-1.6659565E-1,7.719879E-2,2.6016784E-1,2.7040971E-2,2.9186633E-1,6.7513786E-2,-7.925157E-2,2.3825528E-1,-8.115099E-2,-1.6885515E-1,1.7013967E-1,-1.0593373E-1,2.5710365E-1,-1.5886661E-1,1.659934E-1,2.9855096E-1,-1.3976212E-1,-6.642586E-2,1.9764228E-1,-1.4218652E-1,2.6210538E-1,-1.0289036E-1,3.7097892E-1,-1.6814843E-1,1.6534983E-1,-1.5360737E-1,2.639388E-1,5.0286824E-1,-1.3481346E-1,-4.8885547E-2,4.2112154E-1,-1.7712651E-1,2.1847993E-1,-1.3632585E-1,2.9303885E-1,2.5074765E-1,-1.5693273E-1,-4.7017585E-2,3.3323917E-1,-1.6368937E-1,2.4609236E-1,5.0862974E-1,-6.062285E-3],"split_indices":[17,492,17253,5876,1031,5433,17871,8475,27,6001,25,5763,4,7141,0,16339,4,12237,8684,5658,106,27,1701,15629,954,2180,25,3275,6813,1862,10239,57,25,2938,18805,25,13018,6103,34,14591,13379,7870,4560,284,16637,7104,3338,1450,6315,4523,15626,12581,10142,14041,0,0,0,0,0,0,0,0,0,0,0,0,0,0,0,0,0,0,0,0,0,0,0,0,0,0,0,0,0,0,0,0,0,0,0,0,0,0,0,0,0,0,0,0,0,0,0,0,0,0,0,0,0],"split_type":[0,0,0,0,0,0,0,0,0,0,0,0,0,0,0,0,0,0,0,0,0,0,0,0,0,0,0,0,0,0,0,0,0,0,0,0,0,0,0,0,0,0,0,0,0,0,0,0,0,0,0,0,0,0,0,0,0,0,0,0,0,0,0,0,0,0,0,0,0,0,0,0,0,0,0,0,0,0,0,0,0,0,0,0,0,0,0,0,0,0,0,0,0,0,0,0,0,0,0,0,0,0,0,0,0,0,0],"sum_hessian":[7.119663E3,6.135917E3,9.8374615E2,5.505298E3,6.306193E2,9.453809E2,3.836526E1,4.2536465E3,1.2516512E3,4.3841016E2,1.9220914E2,7.2355896E2,2.2182199E2,2.8340675E1,1.0024585E1,3.124681E3,1.1289657E3,5.175562E2,7.34095E2,3.8673492E2,5.1675243E1,1.08806114E2,8.3403015E1,6.717693E2,5.178964E1,1.5582205E2,6.599994E1,1.9544834E1,8.795842E0,2.4047974E3,7.198836E2,6.633296E2,4.6563605E2,2.1634604E2,3.0121017E2,6.2975305E2,1.0434194E2,3.8341626E2,3.3186646E0,4.1496796E1,1.0178447E1,8.285666E1,2.5949453E1,3.8659606E0,7.9537056E1,6.661677E2,5.601552E0,2.2840881E1,2.894876E1,1.3958162E2,1.6240437E1,3.9381184E1,2.6618752E1,1.5894748E1,3.6500857E0,7.67431E0,1.1215327E0,1.6721882E3,7.32609E2,2.9119464E2,4.2868893E2,2.0766968E2,4.556599E2,3.1827728E2,1.4735878E2,4.083127E1,1.7551477E2,2.6150613E2,3.9704025E1,3.336566E2,2.9609647E2,8.7522995E1,1.6818943E1,3.823024E2,1.11385E0,1.4547268E0,1.8639379E0,3.6394527E1,5.1022673E0,7.061695E0,3.1167517E0,7.0581924E1,1.2274734E1,3.3026514E0,2.2646803E1,1.4247178E0,2.4412427E0,7.6833466E1,2.7035937E0,6.63419E2,2.748753E0,2.755161E0,2.8463912E0,1.26602335E1,1.0180648E1,2.7248692E1,1.7000666E0,1.3704851E2,2.5331023E0,1.1079433E1,5.1610026E0,1.2753372E1,2.6627813E1,2.1780375E1,4.838377E0,1.2501487E1,3.3932607E0],"tree_param":{"num_deleted":"0","num_feature":"20000","num_nodes":"107","size_leaf_vector":"0"}},{"base_weights":[-1.8372154E-1,-2.234967E-1,4.9702692E-1,-3.3797768E-1,-4.7293544E-2,6.887291E-1,-2.290649E-1,-1.8006551E-1,-4.1875342E-1,-9.712024E-2,5.318554E-1,8.0916893E-1,-2.8093755E-2,-3.6723658E-1,4.3545052E-1,-9.144791E-2,-4.531361E-1,-4.799754E-1,-2.4511078E-1,1.00472316E-1,-2.3321372E-1,9.390904E-2,8.3609337E-1,8.482502E-1,1.3327691E-2,6.5041655E-1,-2.6610804E-1,-4.956841E-1,2.7492705E-1,1.0014795E0,-3.7295204E-1,-1.4989065E-1,3.1096447E-1,-4.709059E-1,1.044775E0,-4.8309585E-1,1.3756429E0,-3.0137786E-1,3.2430148E-1,-2.5291118E-1,2.725927E-1,-3.685842E-1,-5.4705292E-2,-1.4768468E-1,7.3066694E-1,-2.4609199E-1,9.05277E-1,-2.1996002E-1,8.6705524E-1,-4.6144715E-1,7.671683E-1,8.3920807E-1,-3.6583155E-1,-4.15897E-1,7.185438E-1,-5.5525595E-1,3.30606E-1,8.4350187E-1,-4.9235126E-1,-7.1300725E-3,1.1896913E0,-4.9443465E-1,1.3285443E-1,-2.5373334E-1,5.2502967E-2,-2.1627523E-1,6.538255E-1,-4.8311776E-1,9.753743E-1,1.4160545E0,1.0463187E-1,-5.010369E-1,-1.7412092E-1,-3.784539E-1,-1.6017908E-2,-1.7093474E-1,9.3705654E-1,-3.3356628E-1,3.4348854E-1,4.3472192E-1,-1.1672578E-1,-4.787616E-1,-1.950332E-1,1.738983E-1,-2.8832537E-1,-4.8408276E-1,2.7218005E-1,-4.852132E-1,9.69026E-1,-5.791483E-1,6.825985E-1,9.263339E-1,-3.8212672E-1,-4.6805963E-1,2.9044917E-1,8.765076E-1,-3.8103336E-1,-5.5038E-1,8.954576E-2,9.2353743E-1,1.874637E-1,-5.249418E-1,5.7393E-1,1.0743465E0,-4.0297795E-2,-5.845448E-1,3.3042803E-1,-3.1784263E-1,6.990257E-1,1.1845331E0,-3.357943E-1],"categories":[],"categories_nodes":[],"categories_segments":[],"categories_sizes":[],"default_left":[1,1,1,1,1,1,1,1,1,1,1,1,1,1,1,1,1,1,1,1,1,1,1,1,1,1,1,1,1,1,1,1,1,1,1,1,0,1,1,1,1,1,1,1,1,1,1,1,1,1,0,1,0,1,1,1,1,1,0,0,0,0,0,0,0,0,0,0,0,0,0,0,0,0,0,0,0,0,0,0,0,0,0,0,0,0,0,0,0,0,0,0,0,0,0,0,0,0,0,0,0,0,0,0,0,0,0,0,0,0,0],"id":13,"left_children":[1,3,5,7,9,11,13,15,17,19,21,23,25,27,29,31,33,35,37,39,41,43,45,47,49,51,53,55,57,59,61,63,65,67,69,71,-1,73,75,77,79,81,83,85,87,89,91,93,95,97,-1,99,-1,101,103,105,107,109,-1,-1,-1,-1,-1,-1,-1,-1,-1,-1,-1,-1,-1,-1,-1,-1,-1,-1,-1,-1,-1,-1,-1,-1,-1,-1,-1,-1,-1,-1,-1,-1,-1,-1,-1,-1,-1,-1,-1,-1,-1,-1,-1,-1,-1,-1,-1,-1,-1,-1,-1,-1,-1],"loss_changes":[1.7535973E2,1.2334854E2,4.9933228E1,4.7208496E1,6.958887E1,2.446872E1,7.086896E0,3.0358242E1,2.59458E1,5.9712486E1,2.5376812E1,7.5297546E0,6.9071555E0,5.332718E0,6.5252132E0,2.2381805E1,8.677971E0,1.1154205E1,2.0638947E1,5.5175064E1,3.1748695E1,1.23289585E1,8.6536255E0,4.83284E0,4.7794933E0,2.4403024E0,4.9564614E0,2.7852898E0,5.276971E0,1.5610743E0,4.506681E-1,1.7456306E1,2.1971298E1,5.8514404E0,1.2188387E0,9.9422E0,0E0,1.2838455E1,1.7802664E1,1.44135685E1,3.8536564E1,1.4199974E1,3.0394108E1,8.383498E0,6.8516045E0,2.731397E0,3.228981E0,7.432108E-1,3.0154877E0,4.5164394E-1,0E0,3.589301E-1,0E0,3.3281116E0,1.2680743E0,1.4817238E0,1.2210643E0,3.1202717E0,0E0,0E0,0E0,0E0,0E0,0E0,0E0,0E0,0E0,0E0,0E0,0E0,0E0,0E0,0E0,0E0,0E0,0E0,0E0,0E0,0E0,0E0,0E0,0E0,0E0,0E0,0E0,0E0,0E0,0E0,0E0,0E0,0E0,0E0,0E0,0E0,0E0,0E0,0E0,0E0,0E0,0E0,0E0,0E0,0E0,0E0,0E0,0E0,0E0,0E0,0E0,0E0,0E0],"parents":[2147483647,0,0,1,1,2,2,3,3,4,4,5,5,6,6,7,7,8,8,9,9,10,10,11,11,12,12,13,13,14,14,15,15,16,16,17,17,18,18,19,19,20,20,21,21,22,22,23,23,24,24,25,25,26,26,27,27,28,28,29,29,30,30,31,31,32,32,33,33,34,34,35,35,37,37,38,38,39,39,40,40,41,41,42,42,43,43,44,44,45,45,46,46,47,47,48,48,49,49,51,51,53,53,54,54,55,55,56,56,57,57],"right_children":[2,4,6,8,10,12,14,16,18,20,22,24,26,28,30,32,34,36,38,40,42,44,46,48,50,52,54,56,58,60,62,64,66,68,70,72,-1,74,76,78,80,82,84,86,88,90,92,94,96,98,-1,100,-1,102,104,106,108,110,-1,-1,-1,-1,-1,-1,-1,-1,-1,-1,-1,-1,-1,-1,-1,-1,-1,-1,-1,-1,-1,-1,-1,-1,-1,-1,-1,-1,-1,-1,-1,-1,-1,-1,-1,-1,-1,-1,-1,-1,-1,-1,-1,-1,-1,-1,-1,-1,-1,-1,-1,-1,-1],"split_conditions":[2.8019089E-1,9.986638E-1,3.7444976E-1,7.452184E-2,6.3533115E-1,1.8597421E-1,2.2969896E-4,1.8520169E0,1.48346E-1,3.3974828E-4,6.8847334E-1,8.022766E-3,1.1975522E0,2.731807E-4,4.8457417E-3,8.4172463E-1,1.3851566E0,2.3997035E0,4.7836814E-4,1.7138626E-4,1.133563E-2,1.856266E-1,1.9644976E-1,1.6352318E-2,6.132886E-1,3.5237604E-1,3.4535933E-1,1.3881448E-1,5.0417937E-2,2.4933293E-5,1.1533936E0,1.0224085E0,1.5579829E0,1.8439177E0,1.1663525E0,2.9659957E-5,4.1269287E-1,9.2801213E-4,1.3679036E-1,5.1612854E-1,1.2178667E-1,6.591242E-4,5.7594404E-3,3.8406017E-1,8.3197826E-1,5.3614545E-1,6.339529E-1,1.3485805E0,8.5126495E-1,1.2869711E0,2.3015049E-1,4.2373815E-1,-1.0974947E-1,7.046596E-1,7.5550413E-1,5.264834E-1,2.5692616E0,5.95454E-1,-1.4770539E-1,-2.1390219E-3,3.569074E-1,-1.483304E-1,3.985633E-2,-7.6120004E-2,1.575089E-2,-6.488257E-2,1.9614767E-1,-1.4493534E-1,2.9261228E-1,4.2481637E-1,3.1389564E-2,-1.5031107E-1,-5.2236278E-2,-1.1353618E-1,-4.8053726E-3,-5.1280424E-2,2.8111696E-1,-1.0006989E-1,1.03046566E-1,1.3041659E-1,-3.5017736E-2,-1.436285E-1,-5.850996E-2,5.216949E-2,-8.649761E-2,-1.4522484E-1,8.165402E-2,-1.4556396E-1,2.9070783E-1,-1.737445E-1,2.0477955E-1,2.779002E-1,-1.1463802E-1,-1.4041789E-1,8.7134756E-2,2.629523E-1,-1.1431001E-1,-1.65114E-1,2.6863728E-2,2.7706125E-1,5.6239113E-2,-1.5748255E-1,1.7217901E-1,3.2230398E-1,-1.2089339E-2,-1.7536344E-1,9.912842E-2,-9.535279E-2,2.0970772E-1,3.5535994E-1,-1.00738294E-1],"split_indices":[5320,6181,0,163,301,25,18805,57,1351,11555,6,15332,10940,17348,11234,74,1087,1378,18805,8684,3539,492,410,3670,810,5435,8790,15965,12708,13620,189,6390,11982,6169,33,19706,0,17452,3079,307,5012,15614,14011,2679,7737,776,3019,3,2924,111,0,218,0,852,14,10506,0,4097,0,0,0,0,0,0,0,0,0,0,0,0,0,0,0,0,0,0,0,0,0,0,0,0,0,0,0,0,0,0,0,0,0,0,0,0,0,0,0,0,0,0,0,0,0,0,0,0,0,0,0,0,0],"split_type":[0,0,0,0,0,0,0,0,0,0,0,0,0,0,0,0,0,0,0,0,0,0,0,0,0,0,0,0,0,0,0,0,0,0,0,0,0,0,0,0,0,0,0,0,0,0,0,0,0,0,0,0,0,0,0,0,0,0,0,0,0,0,0,0,0,0,0,0,0,0,0,0,0,0,0,0,0,0,0,0,0,0,0,0,0,0,0,0,0,0,0,0,0,0,0,0,0,0,0,0,0,0,0,0,0,0,0,0,0,0,0],"sum_hessian":[6.4712593E3,6.11466E3,3.5659927E2,3.7059495E3,2.4087107E3,2.821561E2,7.4443184E1,1.2552443E3,2.450705E3,2.2186619E3,1.900488E2,2.414578E2,4.0698307E1,6.1999153E1,1.2444028E1,9.4870337E2,3.065409E2,1.8105773E3,6.401279E2,9.049856E2,1.3136764E3,7.84417E1,1.1160709E2,2.300928E2,1.1364989E1,1.011907E1,3.0579237E1,5.1855053E1,1.0144101E1,7.1787543E0,5.265273E0,8.2894275E2,1.1976061E2,3.036246E2,2.9162877E0,1.8082761E3,2.3011703E0,5.8298987E2,5.7138054E1,2.962598E2,6.0872577E2,7.465052E2,5.6717114E2,5.7422844E1,2.101886E1,6.552616E0,1.0505448E2,3.7954843E0,2.2629732E2,7.2111936E0,4.1537957E0,8.680649E0,1.438421E0,2.7042976E1,3.5362597E0,4.8673893E1,3.1811593E0,5.7694407E0,4.3746605E0,1.2802306E0,5.8985233E0,4.263714E0,1.0015596E0,5.4768616E2,2.8125662E2,4.7336857E1,7.242375E1,3.0174277E2,1.8818508E0,1.7277546E0,1.1885331E0,1.7084509E3,9.982514E1,4.5875375E2,1.24236115E2,3.1997952E1,2.5140102E1,2.6135562E2,3.4904163E1,4.296741E2,1.790517E2,4.5554657E2,2.9095862E2,2.8679254E2,2.8037863E2,3.1795307E1,2.5627537E1,3.2753768E0,1.7743483E1,5.099989E0,1.4526274E0,1.0363979E2,1.4146817E0,2.609857E0,1.1856272E0,2.2489183E2,1.4054856E0,6.2099853E0,1.0012082E0,7.3168902E0,1.3637583E0,2.4782467E1,2.2605095E0,2.1244051E0,1.4118545E0,4.7444935E1,1.228959E0,1.202298E0,1.9788611E0,4.4718275E0,1.2976131E0],"tree_param":{"num_deleted":"0","num_feature":"20000","num_nodes":"111","size_leaf_vector":"0"}},{"base_weights":[8.548251E-2,3.167109E-2,3.9906797E-1,8.355755E-2,-2.1869217E-1,6.152792E-1,2.0750123E-1,1.4562756E-2,2.3838004E-1,-1.2055464E-1,-4.2309508E-1,3.9474702E-1,7.3578376E-1,-4.08884E-1,5.444315E-1,9.900082E-2,-1.3833512E-1,4.686243E-1,1.0907407E-1,-2.536606E-1,4.1087303E-2,-4.4636473E-1,4.390564E-1,2.5884118E-2,5.885669E-1,7.6024234E-1,-1.262273E-1,-4.6309438E-1,2.581203E-1,-2.0621017E-1,7.787289E-1,2.2492753E-1,-2.1116156E-2,-2.2440898E-1,5.399758E-2,5.979923E-1,1.041158E-1,-1.9651938E-2,3.833435E-1,-3.2122615E-1,7.609963E-2,4.4470525E-1,-5.668102E-2,-4.5958883E-1,8.947549E-1,-4.8909277E-1,1.2079455E0,3.7585276E-1,-3.2765278E-1,2.6337087E-1,7.1581066E-1,8.119834E-1,4.2776513E-1,6.351262E-1,-5.555602E-1,2.1171975E-1,-5.174791E-1,-4.7545668E-1,7.8967613E-1,9.904752E-2,-4.783555E-1,8.253268E-1,-9.74535E-3,2.5396062E-2,